svm_type c_svc
kernel_type rbf
gamma 2.346866932644919E-4
nr_class 2
total_sv 1225
rho -10.381539448030146
label 1 2
probA -5.973270111577911
probB 0.12666732344507362
nr_sv 627 598
SV
32.0 206:2.2008309797603727 801:1.8703489560385322 1013:2.1203489560385322 1529:1.8359730751010486 
32.0 960:1.7606647838082983 1068:1.4205768401800798 1103:1.9606647838082982 3177:1.1517859599366076 4004:1.9606647838082982 
32.0 575:0.5761475886450209 634:0.6127077449400932 1524:0.6127077449400932 1617:0.6127077449400932 1692:0.6127077449400932 2229:1.2254154898801863 2431:0.4877077449400932 2479:0.4511475886450209 2565:0.3472122753498691 2702:0.6127077449400932 2738:0.47708743234994866 2904:0.6127077449400932 3603:0.6127077449400932 3750:0.6127077449400932 3845:0.40971227534986904 
32.0 640:2.8271319413847094 1870:2.6011079730138302 1927:3.2677746396804968 
32.0 170:1.7606647838082983 2081:1.4962791648308258 2332:1.9606647838082982 3308:1.5991937993967775 3962:1.9606647838082982 
32.0 21:0.6182272125821561 230:1.11476055986307 284:1.4004748455773557 879:1.0687708320220184 2126:0.849334703416274 2759:1.257617702720213 3376:1.4004748455773557 
32.0 1388:1.9606647838082982 1605:1.843672283664067 2311:1.9606647838082982 2382:1.843672283664067 2549:1.4962791648308258 
32.0 
32.0 1514:1.4135659706923547 2674:1.4135659706923547 2764:0.9456734836827541 3482:1.6338873198402484 3660:1.6338873198402484 3963:1.2468993040256882 
32.0 645:0.9754154898801864 1368:1.2254154898801863 1687:1.2254154898801863 1880:1.2254154898801863 1932:1.1522951772900418 2013:1.2254154898801863 2486:1.1522951772900418 2914:1.2254154898801863 
32.0 62:0.30599551251684143 65:0.35339149267308867 133:0.4084718299600621 167:0.4084718299600621 189:0.3007650590966806 654:0.3668051632933954 1012:0.4453243583670161 1232:0.2834718299600621 1240:0.31172482600642204 1402:0.30599551251684143 1469:0.3840983924300139 2021:0.3668051632933954 2259:0.34243172576334724 2318:0.31172482600642204 2531:0.31172482600642204 2917:0.4084718299600621 3038:0.5462830337998253 3187:0.4084718299600621 3591:0.4084718299600621 3878:0.34243172576334724 3928:0.3840983924300139 4236:0.4084718299600621 
32.0 111:1.3169087740457621 227:1.4004748455773557 1088:1.0491274714863135 2067:0.9719034170059272 2551:0.9852047604904245 2610:0.8047712739427397 3159:1.4004748455773557 
18.54952136208942 1038:1.3792866646865944 1460:1.9606647838082982 2327:1.9606647838082982 3244:1.5991937993967775 3449:0.8436722836640668 
32.0 21:0.1841527867265997 253:0.19613534932596458 338:0.20858135997960617 345:0.14885040419114653 521:0.20858135997960617 659:0.20858135997960617 845:0.17485875358128372 879:0.15917863455647083 1003:0.20858135997960617 1009:0.19613534932596458 1016:0.20858135997960617 1038:0.14673262390282918 1273:0.20858135997960617 1413:0.14885040419114653 1464:0.18045523030115168 1797:0.1701269999358274 1946:0.12545602815814832 2142:0.10219838125620193 2174:0.15625302766817434 2304:0.11301001750450672 2501:0.20858135997960617 2513:0.19613534932596458 2532:0.19613534932596458 2792:0.14885040419114653 2813:0.19613534932596458 2890:0.20858135997960617 2910:0.20858135997960617 2950:0.19613534932596458 3055:0.1660281684902445 3065:0.1701269999358274 3137:0.20858135997960617 3202:0.20858135997960617 3209:0.1624127429276421 3279:0.20858135997960617 3317:0.17485875358128372 3394:0.22335042839846186 3449:0.17950474120512058 3646:0.20858135997960617 3729:0.20858135997960617 3952:0.31835726911294165 4036:0.20858135997960617 4152:0.14113614718296125 4163:0.20858135997960617 
32.0 3388:3.2677746396804968 4196:2.6011079730138302 4235:2.1851321351993014 
32.0 1:0.6584543870228811 156:0.42117380881664085 516:0.7002374227886778 879:0.5343854160110092 951:0.6584543870228811 1297:0.7002374227886778 1420:0.6584543870228811 1738:0.7002374227886778 2534:0.7002374227886778 2729:0.5870258155943096 2764:0.4052886358640374 3394:0.3749096476688467 3762:0.6288088513601064 3952:0.5343854160110092 
32.0 753:1.4672206531735816 955:1.6338873198402484 1109:1.6338873198402484 1516:0.9993281661639811 2492:1.5363935697200557 3449:0.7030602363867222 
32.0 1114:0.9803323919041491 1308:0.9803323919041491 1613:0.9803323919041491 1685:0.9803323919041491 1697:0.9803323919041491 1768:0.9803323919041491 1820:0.9803323919041491 1844:0.9803323919041491 3449:0.4218361418320334 4179:0.9803323919041491 
32.0 
32.0 218:3.2677746396804968 1048:2.739453806106778 1674:2.739453806106778 
32.0 716:1.3005539865069151 1337:1.6338873198402484 1403:1.6338873198402484 1731:1.6338873198402484 3635:1.6338873198402484 3868:1.0925660675996507 
14.385619961599243 158:9.80332391904149 
32.0 2142:1.6011079730138302 2610:1.877799639199726 2886:3.2677746396804968 
32.0 1509:3.2677746396804968 3582:4.145574278880223 
32.0 621:0.7471237653018487 627:0.8912112653674082 967:0.8912112653674082 1022:0.8912112653674082 1215:0.8380328562109395 1421:0.8912112653674082 2051:0.8380328562109395 2752:0.8912112653674082 2792:0.6359971815439898 3417:0.5708874511804071 4021:0.8912112653674082 
32.0 461:3.0727871394401114 2620:3.2677746396804968 2866:2.3319896656612955 
32.0 429:0.6535549279360994 444:0.6535549279360994 1289:0.6145574278880223 1320:0.5868882612694327 1363:0.6145574278880223 2109:0.26989576112520147 2282:0.5202215946027661 2420:0.48122409455468895 2447:0.48959282002694626 2742:0.48122409455468895 3039:1.0661291995978517 3862:0.6535549279360994 3888:0.5868882612694327 4169:0.5868882612694327 
32.0 483:3.2677746396804968 3611:3.2677746396804968 3773:3.2677746396804968 
32.0 1189:0.7218361418320335 1496:0.7803323919041492 2813:0.9218361418320336 3315:1.0687784600808388 3380:0.5159467729266767 3424:0.9803323919041491 3449:0.8436722836640668 3770:0.848139582415413 
32.0 156:0.9827388872388286 1352:1.6338873198402484 2618:1.6338873198402484 3021:1.6338873198402484 3390:1.1838140334833998 3476:1.1838140334833998 
32.0 858:2.2677746396804968 1760:3.2677746396804968 1962:2.2988111078109905 
14.394251221033537 2130:9.80332391904149 
32.0 146:0.8912112653674082 939:0.8003021744583173 1766:0.8912112653674082 2233:0.7093930835492265 2513:0.8380328562109395 2592:0.6939453561453799 3441:0.5360393930393611 3501:0.6457167455363999 3531:0.8380328562109395 3621:0.7710359840140117 4207:0.6359971815439898 
32.0 549:0.7123340551403033 1921:0.7662703692703302 2190:1.0242623798133705 2304:0.5901634247457573 3380:0.5732741921407518 3421:1.0892582132268323 3449:0.46870682425781485 4145:1.0892582132268323 4219:0.8670359910046102 
32.0 324:1.2116279748791612 1139:1.4004748455773557 1705:0.9719034170059272 1865:1.4004748455773557 2029:1.4004748455773557 2158:1.257617702720213 3536:0.9852047604904245 
32.0 289:0.4851769167537018 388:0.35346637251532376 828:0.4851769167537018 878:0.3738360105737052 1343:0.2923892845051529 2003:0.46333283784428897 2109:0.4261512017766339 2135:0.30310156840437036 2312:0.29041693158838117 2562:0.3629701749175248 2647:0.35806967994955213 2980:0.37991375885896495 3063:0.30083479356795534 3367:0.4851769167537018 3393:0.333889068442326 3425:0.4463892539028489 3559:0.3155773156307309 4003:0.43254533780633336 
23.426164090502937 790:1.696279164830826 2140:1.4205768401800798 2142:0.9606647838082982 3177:1.1517859599366076 3320:1.9606647838082982 
14.401656939474886 1748:9.80332391904149 
32.0 542:0.23686956914047663 974:0.9218361418320336 1041:0.848139582415413 1145:0.8803323919041491 1674:0.8218361418320335 1921:0.6896433323432972 2142:0.4803323919041491 3394:0.5248735067363854 3670:0.6411006496262731 4042:0.6995968996983888 
4.620469144336149 994:2.4508309797603727 3121:1.4863357309784797 3306:2.4508309797603727 3449:1.0545903545800834 
32.0 719:0.9351744780192661 1519:1.1004154898801863 1775:1.1522951772900418 2135:0.7198662249603797 2185:1.2254154898801863 2400:0.9351744780192661 2483:1.1522951772900418 3825:1.1522951772900418 
32.0 33:0.6771787630031916 680:0.7541018399262686 1515:0.6524150633964715 1578:1.5082036798525371 2261:0.7541018399262686 2304:0.4085746786701397 2738:0.5871845321230138 3395:0.7541018399262686 3505:0.6002556860801148 3606:0.7541018399262686 3784:0.7541018399262686 4173:0.5871845321230138 
14.390279322108501 2704:9.80332391904149 
14.648839740891336 656:0.9179865375505243 771:0.9351744780192661 1068:0.8878605251125499 2135:0.7198662249603797 2425:0.839482634723894 2597:1.2254154898801863 3177:0.7198662249603797 3449:0.5272951772900417 
32.0 699:0.582818772387521 1195:0.5275749017310446 1571:0.5360393930393611 2330:0.8912112653674082 2357:0.8003021744583173 2598:0.8003021744583173 2673:0.8003021744583173 3443:0.8380328562109395 3504:0.7269062724530807 3670:1.165637544775042 
15.797277826469609 3504:7.995968996983887 
32.0 79:0.8159880333782438 104:0.9423773137949032 127:0.8481554352887976 885:1.0892582132268323 1672:1.0242623798133705 2089:0.9423773137949032 2741:0.746206786421239 3401:0.8884409996648763 3702:1.0892582132268323 
25.90640848938439 2698:4.609180709160167 2824:4.901661959520745 
32.0 26:3.2677746396804968 2304:1.770490274237272 2957:3.2677746396804968 
32.0 368:0.7002374227886778 538:0.43996198066191183 768:0.7002374227886778 1808:0.7002374227886778 1877:0.6584543870228811 2748:0.557380279931535 2781:0.7002374227886778 3001:0.7002374227886778 3255:0.7002374227886778 3373:0.4359203000643142 3437:0.7002374227886778 3501:0.5073488714928857 3754:1.0146977429857713 
32.0 236:1.7489922492459717 333:2.4508309797603727 985:2.4508309797603727 2724:2.4508309797603727 
32.0 1324:1.2254154898801863 1624:1.2254154898801863 1996:0.5694245506997382 2228:1.1522951772900418 2286:0.9754154898801864 2304:0.663933852838977 2759:1.1004154898801863 2802:1.2254154898801863 
32.0 1038:1.1494055539054953 1571:0.9827388872388286 1998:1.1055664862665298 2033:1.6338873198402484 2293:1.3005539865069151 3504:1.3326614994973145 
32.0 3210:8.218361418320335 
32.0 199:1.9606647838082982 1309:1.843672283664067 1870:1.5606647838082983 1998:1.3266797835198358 4167:1.4205768401800798 
32.0 2309:3.4979844984919435 2409:3.901661959520746 
32.0 303:2.3045903545800837 1402:1.8359730751010486 3038:1.6388491013994761 3273:2.2008309797603727 
32.0 322:1.7606647838082983 538:1.2318935458533533 1877:1.843672283664067 1921:1.3792866646865944 2588:1.643672283664067 
32.0 
32.0 1134:3.2677746396804968 2762:3.2677746396804968 4119:2.9344413063471633 
16.759406153617558 3373:6.102884200900399 
32.0 222:1.4672206531735816 827:1.4672206531735816 1946:0.9827388872388286 2331:1.4672206531735816 3501:1.1838140334833998 3617:1.6338873198402484 
32.0 553:1.2254154898801863 1189:0.9022951772900418 1885:1.2254154898801863 1953:0.6944245506997382 2174:0.9179865375505243 2986:0.9994961246229859 3974:1.2254154898801863 4206:1.2254154898801863 
32.0 863:2.4508309797603727 1049:2.4508309797603727 3449:1.0545903545800834 4053:2.2008309797603727 
32.0 262:0.839482634723894 864:0.9351744780192661 1232:0.8504154898801863 2126:0.7431678654892399 2394:1.2254154898801863 3127:1.0601744780192661 3510:1.2254154898801863 4200:1.0601744780192661 
32.0 542:0.47373913828095326 1233:1.7606647838082983 1870:1.5606647838082983 3287:1.9606647838082982 3449:0.8436722836640668 
32.0 216:0.848139582415413 307:0.9218361418320336 397:0.9803323919041491 401:0.7803323919041492 846:0.7995968996983888 1263:0.8803323919041491 1661:0.6803323919041491 2407:0.9803323919041491 3304:0.9803323919041491 3417:0.6279761962984478 
32.0 28:0.36308607107561075 138:0.3414207932711235 365:0.28901199700153674 651:0.36308607107561075 1012:0.19792193705200714 1500:0.36308607107561075 1596:0.2770887342279307 1651:0.36308607107561075 1998:0.24568144139256215 2142:0.17790088589042558 2497:0.3043837562340865 2733:0.7261721421512215 2860:0.36308607107561075 3110:0.36308607107561075 3171:0.36308607107561075 3317:0.3043837562340865 3319:0.36308607107561075 3373:0.22603274818149624 3411:0.36308607107561075 3449:0.15623560808593828 3491:0.3141257712649677 3557:0.28901199700153674 3681:0.3141257712649677 4044:0.36308607107561075 4235:0.24279245946658903 4255:0.36308607107561075 
32.0 1226:0.7481395824154129 1343:0.5555396405597905 1419:0.6279761962984478 1436:0.9803323919041491 1490:0.9218361418320336 2195:0.6343892300404195 2565:0.5555396405597905 2578:0.6218361418320335 3109:0.5555396405597905 3190:0.7343892300404194 
32.0 86:1.2254154898801863 230:0.9754154898801864 640:1.0601744780192661 665:1.2254154898801863 1189:0.9022951772900418 1826:1.0272951772900418 3080:1.2254154898801863 3670:0.8013758120328414 
32.0 500:3.2677746396804968 2484:3.2677746396804968 2549:2.4937986080513763 
32.0 36:1.9606647838082982 2071:3.5213295676165965 2439:1.843672283664067 3044:1.843672283664067 
14.394251870284315 3445:9.80332391904149 
32.0 1605:2.3045903545800837 2382:2.3045903545800837 2549:1.8703489560385322 4154:2.4508309797603727 
32.0 1343:0.6172662672886561 1419:0.6977513292204974 2195:0.7048769222671326 2551:0.7662703692703302 2565:0.6172662672886561 2578:0.6909290464800372 2970:1.0892582132268323 3109:0.6172662672886561 3547:1.0892582132268323 
32.0 382:0.49875972161027526 764:0.5868882612694327 944:0.6535549279360994 1225:0.6535549279360994 1782:0.6145574278880223 1910:0.6535549279360994 2556:0.6145574278880223 2792:0.46639793313225913 2891:0.6535549279360994 3321:0.48122409455468895 3394:0.34991567115759026 3417:0.4186507975322985 3449:0.2812240945546889 3571:0.5868882612694327 3808:0.6145574278880223 
20.73601696854145 858:3.4016619595207453 4254:4.901661959520745 
32.0 542:0.7895652304682553 1921:2.2988111078109905 3449:1.4061204727734444 
32.0 408:1.3169087740457621 1592:1.3169087740457621 3079:1.257617702720213 3147:1.2116279748791612 3277:1.3169087740457621 3501:1.0146977429857713 3725:1.11476055986307 
32.0 401:3.901661959520746 2405:3.9979844984919435 
32.0 538:3.079733864633383 1919:4.901661959520745 
32.0 418:2.665322998994629 607:3.2677746396804968 2465:3.0727871394401114 
32.0 1264:2.4508309797603727 1484:2.3045903545800837 2587:2.4508309797603727 3541:2.4508309797603727 
32.0 959:1.257617702720213 1210:1.3169087740457621 2126:0.849334703416274 2566:1.3169087740457621 3524:1.3169087740457621 3559:0.8565669995691266 4167:1.0146977429857713 
32.0 538:1.5398669323166916 978:2.4508309797603727 1516:1.4989922492459717 2414:2.4508309797603727 
32.0 938:2.2008309797603727 1018:2.4508309797603727 1921:1.724108330858243 2357:2.2008309797603727 
32.0 124:0.30083479356795534 777:0.46333283784428897 864:0.3937576749554805 1058:0.4851769167537018 1402:0.7730412947793889 1563:0.4851769167537018 1571:0.3103385959701564 1725:0.46333283784428897 1745:0.4851769167537018 1887:0.46333283784428897 1953:0.2923892845051529 2310:0.5159644167916574 3038:0.34502086345252125 3094:0.5159644167916574 3697:0.5159644167916574 3954:0.46333283784428897 4090:0.5159644167916574 4138:0.3682088945780993 
29.188720830852937 858:1.7008309797603727 1571:1.474108330858243 2472:2.3045903545800837 3850:2.3045903545800837 
32.0 4029:4.401661959520745 4097:3.901661959520746 
32.0 1751:1.443672283664067 2257:1.3431722155582304 2362:1.843672283664067 2510:1.696279164830826 3960:1.9606647838082982 
32.0 12:1.5363935697200557 177:1.6338873198402484 1480:1.6338873198402484 2471:1.4135659706923547 2563:1.5363935697200557 3464:1.6338873198402484 
32.0 
32.0 79:0.6119910250336829 83:0.7681967848600278 998:0.7336103265867908 1815:0.6119910250336829 1831:0.8169436599201242 2293:0.6502769932534576 2614:0.7681967848600278 2745:0.5596550898159293 3232:0.8169436599201242 3401:0.6663307497486572 3845:0.5462830337998253 3868:0.5462830337998253 
32.0 475:0.5233326091570377 563:0.7541018399262686 1438:0.3611384201741017 1446:0.7091047244861797 2339:0.6524150633964715 2340:0.6150745382295298 2741:0.516604698291627 2748:0.6002556860801148 3052:0.6002556860801148 4027:0.7541018399262686 4051:0.6524150633964715 4152:0.5102614551999368 4205:0.44993289297343203 
32.0 468:0.7002374227886778 699:0.4579290354473379 879:0.5343854160110092 1172:0.7002374227886778 1626:0.6584543870228811 1836:0.7002374227886778 1953:0.7936280579425579 2142:0.34309456564582075 2500:0.7002374227886778 2779:0.7002374227886778 3192:0.7002374227886778 3498:0.6058139874395806 4115:0.6288088513601064 
32.0 2390:2.4508309797603727 3157:2.3045903545800837 3218:2.1203489560385322 4153:2.4508309797603727 
32.0 858:0.5233326091570377 1631:0.6321816475631027 1675:0.7091047244861797 1780:0.7541018399262686 1887:0.6771787630031916 1980:0.7541018399262686 2126:0.4573340710703015 2272:0.7541018399262686 2792:0.5381514613064529 2834:0.6524150633964715 3559:0.9224567687667519 3797:0.6524150633964715 
32.0 207:0.42623147474093437 236:0.30417256508625595 241:0.42623147474093437 924:0.4007983225356667 1395:0.4007983225356667 1467:0.42623147474093437 1855:0.42623147474093437 1955:0.42623147474093437 2127:0.7375126803612286 2263:0.3687563401806143 2459:0.42623147474093437 2919:0.42623147474093437 3113:0.8524629494818687 3328:0.3827532138713691 3449:0.36681403637568116 3577:0.3827532138713691 3871:0.42623147474093437 3909:0.8524629494818687 4207:0.30417256508625595 
32.0 1194:4.901661959520745 4068:4.2406979120770645 
32.0 1316:0.5715861077791152 1343:0.5555396405597905 1419:0.6279761962984478 2195:0.6343892300404195 2565:0.5555396405597905 2578:0.6218361418320335 2627:0.7343892300404194 3109:1.111079281119581 4053:0.8803323919041491 
32.0 1069:1.4672206531735816 1189:1.2030602363867224 2142:0.8005539865069151 2604:1.5363935697200557 3193:1.4672206531735816 4040:1.4135659706923547 
32.0 202:0.7002374227886778 373:0.7002374227886778 592:0.44416867273716676 677:0.7002374227886778 1658:0.6584543870228811 1922:1.3169087740457621 2062:0.7002374227886778 2156:0.6058139874395806 2416:0.7002374227886778 3220:1.0904855596570255 3720:0.6584543870228811 3858:0.7002374227886778 
32.0 1343:0.42733818504599275 1419:0.48305861253726756 1438:0.3611384201741017 2094:0.5754919864733946 2195:0.4879917154157073 2565:0.42733818504599275 2578:0.47833549371694883 2627:0.5649147923387842 2637:0.42733818504599275 3107:0.7541018399262686 3109:0.42733818504599275 3457:0.4429945999756183 3466:0.34334414739668206 
32.0 1142:3.1091807091601673 1632:4.609180709160167 
32.0 1890:4.609180709160167 4111:4.2406979120770645 
32.0 2606:3.2677746396804968 3248:3.2677746396804968 4010:3.2677746396804968 
32.0 294:0.4954452436594932 925:0.7336103265867908 1602:0.7681967848600278 1742:0.5527832431332649 2003:0.7336103265867908 2092:0.7681967848600278 2518:0.6848634515266945 3270:0.5342505413552275 3393:0.5286576917003495 3936:0.5527832431332649 4059:0.5527832431332649 4174:0.6119910250336829 
32.0 
32.0 288:0.8003021744583173 1343:0.5050360368725368 1419:0.5708874511804071 1767:0.8912112653674082 2195:0.5767174818549268 2565:0.5050360368725368 2578:0.5653055834836668 3063:0.5196237343446501 3109:0.5050360368725368 3270:0.582818772387521 4064:0.8003021744583173 
32.0 144:0.17391530412341172 152:0.26165674845768655 223:0.3840983924300139 228:0.5462830337998253 464:0.31805828823329907 641:0.4084718299600621 728:0.4084718299600621 928:0.24983204154099528 1012:0.22266217918350806 1031:0.2873513884763738 1162:0.4084718299600621 1796:0.3840983924300139 2048:0.4084718299600621 2095:0.3840983924300139 2109:0.16868485070325093 2384:0.31805828823329907 2682:0.4084718299600621 2885:0.4084718299600621 2971:0.31172482600642204 3031:0.3668051632933954 3380:0.21497782205278193 3438:0.35339149267308867 3844:0.3668051632933954 
32.0 54:0.38166994587995895 529:0.49016619595207456 656:0.3671946150202097 877:0.49016619595207456 958:0.49016619595207456 1453:0.37406979120770645 1488:0.49016619595207456 1529:0.3671946150202097 1962:0.3448216661716486 2093:0.49016619595207456 2400:0.37406979120770645 2834:0.4240697912077065 3008:0.44016619595207457 3190:0.3671946150202097 3256:0.41091807091601673 3293:0.49016619595207456 3302:0.49016619595207456 3315:0.2671946150202097 3441:0.2948216661716486 3566:0.41091807091601673 
32.0 1513:1.2254154898801863 1725:1.1004154898801863 1931:1.2254154898801863 1997:1.2254154898801863 2304:0.663933852838977 3713:1.2254154898801863 4112:1.2254154898801863 4164:1.1522951772900418 
32.0 239:0.6127077449400932 503:0.6127077449400932 1095:0.6127077449400932 1277:0.6127077449400932 1559:0.5761475886450209 1841:0.6127077449400932 2022:0.5761475886450209 2081:0.46758723900963306 2135:0.35993311248018983 2271:0.6127077449400932 2320:0.5761475886450209 2662:0.5761475886450209 2866:0.43724806231149294 3121:0.3715839327446199 3449:0.26364758864502086 3559:0.37474806231149294 
32.0 427:4.609180709160167 1728:4.2406979120770645 
29.431258283603988 528:3.2677746396804968 1759:3.2677746396804968 3670:2.13700216542091 
32.0 79:0.4079940166891219 118:0.25606559495334263 127:0.4240777176443988 512:0.5446291066134161 538:0.17109632581296572 653:0.27231455330670806 827:0.48907355105786054 899:0.27231455330670806 1360:0.24453677552893027 1381:0.5446291066134161 1544:0.27231455330670806 1548:0.24453677552893027 1587:0.5446291066134161 1953:0.15431656682216402 2174:0.20399700834456094 2213:0.2355943284487258 2448:0.21675899775115254 2695:0.5446291066134161 2721:0.24453677552893027 2763:0.27231455330670806 2807:0.5446291066134161 2982:0.2355943284487258 2984:0.27231455330670806 3156:0.27231455330670806 3315:0.14844145278900536 3501:0.19730233891389995 3557:0.21675899775115254 3979:0.27231455330670806 
32.0 673:2.6011079730138302 998:2.9344413063471633 3046:3.0727871394401114 
32.0 2135:1.9196432665610124 2140:2.3676280669667995 3632:3.2677746396804968 
32.0 103:0.6058139874395806 116:0.6584543870228811 124:0.816551582541593 871:0.7002374227886778 1415:0.557380279931535 1416:0.6058139874395806 2575:0.7002374227886778 3038:0.46824260039985033 3294:0.7002374227886778 3355:0.7002374227886778 3578:0.7002374227886778 4120:0.7002374227886778 4138:0.49971207121313477 
32.0 1327:2.4508309797603727 3449:1.0545903545800834 3511:2.4508309797603727 4038:2.4508309797603727 
32.0 1291:2.4508309797603727 2267:2.3045903545800837 2381:2.4508309797603727 3252:2.4508309797603727 
32.0 1313:2.2008309797603727 1946:1.474108330858243 2209:2.4508309797603727 3268:2.4508309797603727 
31.431433448504805 862:1.311079281119581 1921:1.3792866646865944 3417:1.2559523925968956 3448:1.9606647838082982 4033:1.7606647838082983 
16.602419375649674 216:4.2406979120770645 3218:4.2406979120770645 
32.0 124:0.714482634723894 599:1.2254154898801863 862:0.8194245506997381 1663:1.2254154898801863 2142:0.6004154898801863 2483:1.1522951772900418 3450:1.0601744780192661 3754:0.8878605251125499 
16.712355549729 2511:8.80332391904149 
32.0 1761:2.0545903545800837 2074:2.0545903545800837 2929:2.4508309797603727 3290:2.0545903545800837 
32.0 323:0.7067829853461773 560:0.8169436599201242 592:1.0363935697200557 761:0.7067829853461773 771:0.6234496520128441 974:0.7681967848600278 1068:0.5919070167416999 1195:0.4836103265867909 4009:0.8169436599201242 4033:0.7336103265867908 4138:0.5829974164153239 
32.0 59:0.3770509199631343 519:0.2935922660615069 621:0.31609082378155134 950:0.35455236224308984 1175:0.3770509199631343 1195:0.22320476611698042 1294:0.3770509199631343 1363:0.35455236224308984 1367:0.3075372691147649 1668:0.3770509199631343 1757:0.3770509199631343 1934:0.3770509199631343 1946:0.22678589705511432 2122:0.3770509199631343 2423:0.3770509199631343 2432:0.3770509199631343 2447:0.2824573961693921 2639:0.3385893815015958 2933:0.3770509199631343 3061:0.3770509199631343 3091:0.3770509199631343 3380:0.19844106651026025 3657:0.3770509199631343 3675:0.3770509199631343 3759:0.3770509199631343 4214:0.3770509199631343 
32.0 646:3.0727871394401114 2586:3.2677746396804968 3290:2.739453806106778 
32.0 1:1.1522951772900418 124:0.714482634723894 1402:0.9179865375505243 1484:1.1522951772900418 2708:1.2254154898801863 3457:0.7198662249603797 3505:0.9754154898801864 3512:1.1004154898801863 
20.00490680536557 858:2.2677746396804968 3724:3.2677746396804968 3963:2.4937986080513763 
32.0 1891:3.0727871394401114 2293:2.6011079730138302 2448:2.6011079730138302 
32.0 1060:1.4004748455773557 1285:1.4004748455773557 1734:1.4004748455773557 2057:1.3169087740457621 2270:1.4004748455773557 2838:1.257617702720213 3024:1.4004748455773557 
32.0 154:0.7681967848600278 758:1.5363935697200557 798:0.7681967848600278 1118:1.6338873198402484 1200:0.7336103265867908 2012:0.7681967848600278 2541:0.8169436599201242 3177:0.4799108166402531 3449:0.3515301181933611 3733:0.7336103265867908 
32.0 124:0.2857930538895576 660:0.49016619595207456 884:0.49016619595207456 1191:0.49016619595207456 1195:0.29016619595207455 1209:0.36091807091601674 1240:0.37406979120770645 1491:0.49016619595207456 1570:0.49016619595207456 1713:0.41091807091601673 2304:0.2655735411355908 2337:0.49016619595207456 2496:0.9803323919041491 2611:0.49016619595207456 3284:0.4609180709160168 3351:0.49016619595207456 3505:0.3901661959520746 3917:0.49016619595207456 4048:0.49016619595207456 
32.0 675:2.2008309797603727 1458:2.4508309797603727 2745:1.678965269447788 3185:2.4508309797603727 
32.0 331:3.2677746396804968 557:3.2677746396804968 865:3.0727871394401114 
32.0 555:1.6338873198402484 683:1.6338873198402484 838:1.6338873198402484 1528:1.6338873198402484 1571:0.9827388872388286 2668:1.369726903053389 
32.0 1441:0.8380328562109395 1794:0.531738873514056 2117:0.7471237653018487 2677:0.8380328562109395 3008:0.8003021744583173 3040:0.603036265236289 3177:0.5235390726984579 3270:1.748456317162563 3733:0.8003021744583173 
32.0 542:0.39478261523412767 858:1.1338873198402484 937:1.4672206531735816 960:1.4672206531735816 1068:1.1838140334833998 2096:1.369726903053389 
32.0 293:0.7541018399262686 376:1.304830126792943 671:0.5304948710333056 769:0.46945263083849226 1067:0.7541018399262686 1427:0.7091047244861797 2025:0.7541018399262686 2462:0.7541018399262686 2497:0.6321816475631027 3163:0.48305861253726756 3312:0.5649147923387842 3984:0.7541018399262686 
32.0 182:0.7002374227886778 1081:0.557380279931535 1996:0.32538545754270753 2109:0.2891740297770016 2135:0.41135212854878833 2463:0.7002374227886778 2969:0.6058139874395806 3394:0.3749096476688467 3559:0.4282834997845633 3815:0.6058139874395806 3950:0.6584543870228811 4143:0.47970436269936795 4174:0.5245637357431567 4235:0.46824260039985033 
32.0 190:1.2254154898801863 806:1.1522951772900418 1654:1.0272951772900418 1688:1.2254154898801863 2551:0.8620541654291215 2878:1.2254154898801863 3127:1.0601744780192661 4261:1.0272951772900418 
32.0 64:0.5654263882769419 189:0.9624481891093779 465:0.6535549279360994 587:0.5868882612694327 1357:0.6535549279360994 1764:0.5478907612213556 1946:0.39309555489553144 2011:0.5868882612694327 2366:0.6535549279360994 2652:0.5330645997989258 2996:0.5654263882769419 3341:0.6535549279360994 3832:0.6535549279360994 4071:0.6535549279360994 
32.0 91:1.0242623798133705 1304:2.048524759626741 1635:2.1785164264536645 2135:0.6398810888536708 2579:0.9131512687022594 3228:1.0892582132268323 3596:0.8481554352887976 
32.0 8:0.36308607107561075 705:0.36308607107561075 1066:0.5780239940030735 1107:0.36308607107561075 1183:0.3260490340385737 1493:0.3414207932711235 1586:0.36308607107561075 1661:0.25197495996449965 1662:0.36308607107561075 1751:0.26734671919704944 1876:0.36308607107561075 1890:0.3414207932711235 2304:0.19672114158191908 2319:0.3260490340385737 2384:0.2827184784295992 2479:0.26734671919704944 2486:0.3414207932711235 2681:0.2961469998882921 2719:0.3414207932711235 2742:0.26734671919704944 2792:0.25910996285125504 3467:0.36308607107561075 3903:0.36308607107561075 3946:0.3414207932711235 4070:0.36308607107561075 4126:0.36308607107561075 
11.515713059532617 992:4.901661959520745 3177:2.8794648998415187 
32.0 866:2.3045903545800837 3213:2.2008309797603727 4094:2.4508309797603727 4165:2.4508309797603727 
32.0 2684:3.0727871394401114 3121:1.9817809746379729 3652:3.2677746396804968 
14.394457763493515 1275:9.80332391904149 
32.0 1316:0.5196237343446501 1761:0.7471237653018487 1946:0.5360393930393611 2760:0.8912112653674082 3449:0.7669748033309698 3505:0.7093930835492265 3552:0.8912112653674082 3661:0.8912112653674082 3813:0.8003021744583173 4152:0.603036265236289 
32.0 124:1.2701913506202558 303:1.0242623798133705 645:0.8670359910046102 1047:0.9781471021157211 2037:1.0892582132268323 2076:1.0892582132268323 3023:1.0892582132268323 4152:0.7370443241776865 
32.0 2668:2.739453806106778 2758:2.3676280669667995 3243:3.2677746396804968 
25.92634476487298 1764:4.109180709160167 2619:4.609180709160167 
32.0 262:0.516604698291627 381:0.7541018399262686 1031:0.5304948710333056 1195:0.44640953223396085 1893:0.7541018399262686 2001:0.6524150633964715 2260:0.6321816475631027 2973:0.7541018399262686 3183:0.7091047244861797 3425:0.6524150633964715 3543:0.7541018399262686 4074:0.7541018399262686 4257:0.7541018399262686 
32.0 520:0.8003021744583173 862:1.1918902555632553 935:0.8912112653674082 1202:0.8912112653674082 1689:0.6939453561453799 2071:0.8003021744583173 2126:0.5404857203558108 2930:0.8912112653674082 3459:0.7269062724530807 3488:0.7471237653018487 
32.0 1969:1.9606647838082982 2191:1.9606647838082982 2418:1.9606647838082982 3093:1.9606647838082982 3963:1.4962791648308258 
32.0 226:0.8169436599201242 229:0.7067829853461773 810:0.8169436599201242 1115:0.7681967848600278 1461:0.8169436599201242 1714:0.8169436599201242 1793:0.6848634515266945 3177:0.4799108166402531 3449:0.3515301181933611 3491:0.7067829853461773 3674:0.8169436599201242 4062:0.6234496520128441 
32.0 1395:1.843672283664067 1945:1.5991937993967775 2465:1.843672283664067 3492:1.9606647838082982 4152:1.3266797835198358 
32.0 156:0.7370541654291215 636:2.4508309797603727 644:1.2254154898801863 725:1.1522951772900418 965:1.0272951772900418 1449:1.2254154898801863 3394:0.6560918834204817 
28.00548974017166 510:4.609180709160167 2921:4.2406979120770645 
32.0 643:0.40015108722915865 686:0.41901642810546974 689:0.4456056326837041 1033:0.38551799200700587 1110:0.40015108722915865 1569:0.4456056326837041 1627:0.4456056326837041 1732:0.4456056326837041 1758:0.256063587163599 1946:0.26801969651968055 2072:0.41901642810546974 2142:0.21833290541097686 2220:0.30526641262687054 2479:0.32810733719637886 2607:0.4456056326837041 2742:0.32810733719637886 3361:0.41901642810546974 3570:0.4456056326837041 3758:0.4456056326837041 3891:0.22148120824902745 4023:0.4456056326837041 4156:0.4456056326837041 
32.0 309:0.9423773137949032 716:0.8670359910046102 766:1.0892582132268323 862:0.7283773783997671 1271:1.0242623798133705 1737:0.8884409996648763 2126:0.6605936582126576 3754:0.7892093556555998 4011:1.0892582132268323 
22.406110985392814 1571:5.896433323432972 
32.0 21:0.30911360629107804 292:0.7002374227886778 445:0.6288088513601064 1013:0.6058139874395806 1394:0.7002374227886778 1463:0.6058139874395806 1807:0.5711406426417062 2140:0.5073488714928857 2142:0.34309456564582075 2657:0.7002374227886778 2862:0.6058139874395806 3195:0.7002374227886778 3935:0.6288088513601064 4012:0.7002374227886778 
32.0 42:0.2425884583768509 237:0.2579822083958287 535:0.2425884583768509 711:0.2579822083958287 906:0.2579822083958287 1012:0.14062874474747877 1183:0.23166641892214448 1195:0.15271905050109186 1258:0.2579822083958287 1402:0.5797809710845416 1441:0.2425884583768509 1700:0.2425884583768509 1723:0.2425884583768509 1733:0.23166641892214448 2126:0.15645639273457682 2239:0.2579822083958287 2305:0.43254533780633336 2354:0.23166641892214448 2489:0.17903483997477607 2741:0.17673318625766188 2748:0.2053506294484603 2764:0.14931686584464537 3038:0.17251043172626063 3190:0.19326032369484722 3256:0.21627266890316668 3283:0.23166641892214448 3417:0.1652568937627494 3599:0.43254533780633336 3719:0.23166641892214448 3726:0.2579822083958287 3899:0.23166641892214448 4042:0.18410444728904965 4187:0.2579822083958287 4231:0.2579822083958287 
32.0 621:0.7471237653018487 791:0.8380328562109395 2359:0.8912112653674082 2420:0.6562146743927577 2514:0.8912112653674082 2546:0.8380328562109395 2551:0.626948483948452 2688:0.8003021744583173 3441:0.5360393930393611 3449:0.3834874016654849 3757:0.8912112653674082 
32.0 354:1.9606647838082982 649:1.7606647838082983 1317:1.843672283664067 1608:1.843672283664067 2674:1.696279164830826 
32.0 984:4.901661959520745 1142:3.1091807091601673 
32.0 1795:4.901661959520745 3441:2.948216661716486 
8.896462420440212 1340:9.218361418320335 
32.0 262:0.6105328252537411 799:0.8380328562109395 930:0.8912112653674082 1351:0.8380328562109395 1896:0.6939453561453799 2110:0.8380328562109395 2579:0.7471237653018487 3282:0.8912112653674082 3380:0.4690425208424333 3701:0.8380328562109395 4138:0.6359971815439898 
32.0 107:0.5478907612213556 866:1.2291148557760445 991:0.5868882612694327 1574:0.6535549279360994 1805:0.6535549279360994 2084:0.6535549279360994 2142:0.6404431892055321 2738:0.5088932611732786 3450:0.5654263882769419 3610:0.6535549279360994 3851:0.6535549279360994 3893:0.6145574278880223 4087:0.6145574278880223 
32.0 221:0.7541018399262686 436:0.6321816475631027 571:0.6771787630031916 859:0.5754919864733946 878:0.5463757077615692 1113:0.7541018399262686 2170:0.7091047244861797 3055:0.6002556860801148 3449:0.6489786797415898 4101:0.7541018399262686 4193:0.6771787630031916 4207:0.5381514613064529 
32.0 2166:1.5082036798525371 2262:0.6524150633964715 2447:0.5649147923387842 2842:0.7541018399262686 2897:0.7541018399262686 3028:0.7541018399262686 3068:0.7541018399262686 3220:0.5871845321230138 3253:0.6002556860801148 3343:0.7541018399262686 3582:0.47833549371694883 4131:0.7541018399262686 
32.0 77:0.3162362554529513 206:0.28397819093682225 561:0.25172012642069325 622:0.3162362554529513 650:0.3162362554529513 825:0.3162362554529513 901:0.29736649736517207 964:0.22912529680323868 981:0.28397819093682225 1600:0.3162362554529513 1610:0.29736649736517207 1826:0.26510843284904306 1939:0.27359341368239126 1940:0.3162362554529513 2136:0.3162362554529513 2289:0.3162362554529513 2305:0.26510843284904306 2492:0.29736649736517207 2636:0.29736649736517207 2649:0.3162362554529513 2833:0.3162362554529513 3149:0.3162362554529513 3190:0.23689975162594173 3220:0.24623867476126382 3314:0.3162362554529513 3394:0.16931403443109205 3449:0.27215234956905376 3813:0.28397819093682225 4042:0.22567641925754472 4158:0.3162362554529513 
32.0 771:1.4962791648308258 811:1.696279164830826 858:1.3606647838082981 1068:1.4205768401800798 2135:1.1517859599366076 
32.0 92:1.4004748455773557 144:0.5962810427088402 1355:1.174051631188619 2020:0.6619141310855969 3040:0.9476284167998826 3050:1.2116279748791612 3163:0.8971088518549253 
32.0 17:1.5363935697200557 328:1.6338873198402484 1195:0.9672206531735817 2345:1.1659948328306478 2668:1.369726903053389 3484:1.6338873198402484 
32.0 262:0.839482634723894 443:1.2254154898801863 621:1.0272951772900418 1304:1.1522951772900418 1514:1.0601744780192661 2999:1.1522951772900418 3121:0.7431678654892399 3315:0.6679865375505242 
32.0 2610:2.8166994587995893 4034:4.901661959520745 
32.0 136:1.0892582132268323 1234:1.0242623798133705 1314:1.0242623798133705 1747:0.9423773137949032 2028:0.9781471021157211 2764:1.260897978243672 3214:1.0242623798133705 3457:0.6398810888536708 
32.0 1713:4.109180709160167 3845:3.2776982027989523 
32.0 189:0.6015301181933612 592:1.0363935697200557 816:0.7681967848600278 862:0.5462830337998253 1209:0.6015301181933612 1728:0.7067829853461773 2286:0.6502769932534576 2717:0.8169436599201242 2866:0.5829974164153239 3517:0.7336103265867908 3801:0.7681967848600278 
32.0 119:0.5446291066134161 475:0.37796243994674944 519:0.4240777176443988 538:0.34219265162593143 747:0.5446291066134161 822:0.5446291066134161 864:0.415633101341896 1047:0.48907355105786054 1115:0.5121311899066853 1246:0.5121311899066853 1453:0.415633101341896 1554:0.5446291066134161 2748:0.4335179955023051 2764:0.315224494560918 3055:0.4335179955023051 3582:0.3454645232400186 3870:0.5121311899066853 4051:0.4711886568974516 
32.0 256:0.46758723900963306 742:0.6127077449400932 1240:0.46758723900963306 1996:0.2847122753498691 2262:0.5300872390096331 2516:0.5136475886450209 2589:0.5761475886450209 3121:0.3715839327446199 3217:0.4511475886450209 3253:0.4877077449400932 3457:0.35993311248018983 3498:0.5300872390096331 3602:0.6127077449400932 3622:0.6127077449400932 4054:1.1522951772900418 
32.0 247:0.7091047244861797 862:0.5042612619690696 1148:0.6002556860801148 1228:0.7541018399262686 1558:0.7541018399262686 1588:0.7541018399262686 1671:0.7541018399262686 2610:0.4333383782768599 2629:0.7541018399262686 2964:0.6771787630031916 2966:0.6321816475631027 3449:0.3244893398707949 4189:0.6321816475631027 
32.0 1409:3.2677746396804968 2309:2.3319896656612955 3797:2.8271319413847094 
32.0 144:0.5565289731949175 506:0.6145574278880223 549:0.4274004330841821 802:0.6535549279360994 1490:0.6145574278880223 2020:0.3088932611732786 2067:0.45355492793609936 2119:0.6145574278880223 3163:0.4186507975322985 3270:0.4274004330841821 4064:0.5868882612694327 4143:0.8954481437054869 4174:0.48959282002694626 
32.0 144:0.2981405213544201 319:0.4082757912707965 505:0.5343854160110092 789:0.7002374227886778 1070:0.40238563697136986 1948:0.6584543870228811 2020:0.33095706554279847 2067:0.4859517085029636 2482:0.49260238024521225 2489:0.4859517085029636 3163:0.44855442592746264 3896:0.6584543870228811 3932:0.8971088518549253 
10.508015343741038 1863:9.218361418320335 
32.0 795:4.901661959520745 3382:4.901661959520745 
32.0 
4.893918199342995 1038:1.724108330858243 3244:1.9989922492459717 3296:1.9989922492459717 3449:1.0545903545800834 
32.0 301:0.7336103265867908 363:0.8169436599201242 495:0.6848634515266945 797:0.7336103265867908 1371:0.7681967848600278 1571:0.4913694436194143 1909:0.8169436599201242 1998:0.5527832431332649 2174:0.6119910250336829 2551:0.5747027769527476 2926:0.8169436599201242 3457:0.4799108166402531 
32.0 2798:4.901661959520745 3782:4.609180709160167 
32.0 542:0.29608696142559576 804:1.0601744780192661 879:0.9351744780192661 1921:0.8620541654291215 2425:0.839482634723894 2845:1.1004154898801863 3018:1.2254154898801863 3373:0.7628605251125499 
32.0 609:1.643672283664067 911:1.7606647838082983 1863:1.843672283664067 2962:1.9606647838082982 3417:1.2559523925968956 
32.0 365:3.901661959520746 811:4.2406979120770645 
32.0 345:0.49971207121313477 390:0.5870258155943096 519:0.5452427798285128 592:0.44416867273716676 611:0.35147720497711776 1323:0.7002374227886778 1953:0.39681402897127893 2511:0.6288088513601064 2551:0.49260238024521225 2980:0.5155972441657382 3502:0.7002374227886778 3531:0.6584543870228811 3703:0.6584543870228811 3964:0.6584543870228811 
1.4124148558471195 3868:6.555396405597905 
32.0 693:2.3045903545800837 1317:2.3045903545800837 1677:2.3045903545800837 3417:1.5699404907461194 
32.0 551:0.46333283784428897 592:0.3272821799115965 1130:0.5159644167916574 1262:0.5159644167916574 1329:0.4851769167537018 1755:0.5159644167916574 1953:0.2923892845051529 2126:0.31291278546915363 2163:0.5159644167916574 2305:0.43254533780633336 2504:0.46333283784428897 2681:0.4208404735254677 2685:0.5159644167916574 2921:0.4463892539028489 3449:0.4440380440337193 3747:0.5159644167916574 3993:0.5159644167916574 4207:0.3682088945780993 
14.39390308317933 710:9.80332391904149 
32.0 538:0.8799239613238237 1953:0.7936280579425579 2142:0.6861891312916415 2555:1.4004748455773557 3087:1.3169087740457621 3119:1.2116279748791612 3412:1.4004748455773557 
32.0 124:0.20413789563539825 388:0.23985218134968397 792:0.3501187113943389 872:0.2786901399657675 991:0.3144044256800532 1218:0.2855703213208531 1265:0.6584543870228811 1571:0.21058690440832042 1998:0.23690710419997066 2120:0.3501187113943389 2365:0.32922719351144053 2906:0.3501187113943389 3089:0.3501187113943389 3190:0.26228186787157837 3308:0.2855703213208531 3373:0.2179601500321571 3394:0.18745482383442336 3571:0.3144044256800532 3670:0.22896451772366894 3676:0.3501187113943389 3739:0.32922719351144053 3938:0.5870258155943096 3965:0.3501187113943389 4042:0.24985603560656738 4056:0.32922719351144053 4194:0.3501187113943389 
32.0 592:2.0727871394401114 1189:2.406120472773445 3409:3.2677746396804968 
32.0 260:0.7091047244861797 618:0.7541018399262686 1945:0.6150745382295298 1953:0.42733818504599275 2312:0.42445551539840326 2318:0.5754919864733946 2725:0.7541018399262686 2732:0.6524150633964715 2983:0.7541018399262686 3585:0.7541018399262686 3792:0.7541018399262686 4022:0.7541018399262686 4219:0.6002556860801148 
18.999990597390237 2863:8.80332391904149 
32.0 23:0.46682494852578527 242:0.41920590090673765 287:0.3913505437295397 323:0.4038759916263871 478:0.41920590090673765 845:0.3913505437295397 848:0.8779391826971746 1371:0.4389695913485873 1459:0.46682494852578527 1571:0.28078253921109386 1690:0.8779391826971746 1764:0.3913505437295397 2318:0.3562569440073395 2429:0.46682494852578527 2539:0.33823258099525705 2871:0.46682494852578527 3317:0.3913505437295397 3593:0.4389695913485873 3725:0.37158685328769003 
32.0 371:1.6338873198402484 401:1.3005539865069151 669:1.6338873198402484 759:1.6338873198402484 3386:1.6338873198402484 3394:0.8747891778939756 
27.35985858033886 1061:3.2677746396804968 1366:2.8271319413847094 3177:1.9196432665610124 
27.574533423267212 1123:2.4508309797603727 2764:1.418510225524131 3449:1.0545903545800834 3737:2.4508309797603727 
32.0 632:2.4508309797603727 2057:2.3045903545800837 2184:2.4508309797603727 4227:2.3045903545800837 
32.0 156:1.474108330858243 532:2.4508309797603727 2610:1.4083497293997946 3711:2.4508309797603727 
32.0 43:0.8169436599201242 124:0.47632175648259595 864:0.6234496520128441 957:0.7681967848600278 1012:0.4453243583670161 1062:0.8169436599201242 1195:0.4836103265867909 1240:0.6234496520128441 1790:0.8169436599201242 2073:0.7681967848600278 2304:0.442622568559318 4106:0.8169436599201242 
32.0 362:0.7710359840140117 883:0.8380328562109395 2142:0.4366658108219537 2877:0.8912112653674082 3065:0.7269062724530807 3073:1.7824225307348165 3121:0.5404857203558108 3441:0.5360393930393611 3582:0.5653055834836668 4144:0.8912112653674082 
32.0 63:3.2677746396804968 3549:2.6011079730138302 3963:2.4937986080513763 
12.60149516553002 170:8.80332391904149 
32.0 2412:4.901661959520745 3648:4.901661959520745 
32.0 1309:1.3169087740457621 2096:1.174051631188619 2207:1.2116279748791612 2498:1.4004748455773557 2510:1.2116279748791612 3589:1.4004748455773557 4242:1.4004748455773557 
32.0 21:0.22776792042500488 80:0.46333283784428897 144:0.21968248941904636 327:0.46333283784428897 839:0.37991375885896495 948:0.31291278546915363 1438:0.24709470854017482 1497:0.4851769167537018 2020:0.24386310092627253 2252:0.5159644167916574 2980:0.37991375885896495 3216:0.4107012588969206 3312:0.38652064738969444 3466:0.2349196797977298 3535:0.35806967994955213 3559:0.3155773156307309 3560:0.3272821799115965 3932:0.3305137875254988 4184:0.35806967994955213 
32.0 538:0.6843853032518629 862:0.7283773783997671 1173:1.0892582132268323 1351:1.0242623798133705 1425:1.0892582132268323 1494:0.9423773137949032 3190:0.8159880333782438 3417:0.6977513292204974 3573:0.9781471021157211 
32.0 878:0.6457167455363999 894:0.8912112653674082 1499:0.8912112653674082 2140:0.6457167455363999 2729:0.7471237653018487 2964:0.8003021744583173 3337:0.8912112653674082 3733:0.8003021744583173 3816:0.8912112653674082 4138:0.6359971815439898 4189:0.7471237653018487 
12.400853730046077 538:6.159467729266766 
32.0 105:2.6338175480915242 551:1.257617702720213 1752:1.3169087740457621 2058:0.9364852007997007 2160:1.4004748455773557 4018:1.4004748455773557 
32.0 280:1.3169087740457621 464:1.0904855596570255 1209:1.0311944883314763 1811:1.3169087740457621 3749:1.4004748455773557 3891:0.6960837973540862 4183:1.257617702720213 
32.0 542:2.368695691404766 
32.0 511:2.3045903545800837 855:2.4508309797603727 2126:1.4863357309784797 2866:1.7489922492459717 
32.0 62:0.31929966523496495 152:0.2730331288254121 699:0.2787394128809883 1316:0.24851569903439788 1374:0.4007983225356667 1634:0.42623147474093437 1712:0.4007983225356667 1862:0.4007983225356667 2129:0.42623147474093437 2132:0.4007983225356667 2165:0.42623147474093437 2199:0.42623147474093437 2479:0.3138418007965363 2602:0.29984492710578137 2731:0.42623147474093437 2754:0.42623147474093437 3017:0.4007983225356667 3119:0.3687563401806143 3270:0.2787394128809883 3503:0.42623147474093437 3564:0.42623147474093437 3687:0.3827532138713691 4057:0.42623147474093437 
27.151505090596032 72:4.901661959520745 3417:3.139880981492239 
32.0 542:0.7895652304682553 1921:2.2988111078109905 3449:1.4061204727734444 
32.0 250:0.7681967848600278 1343:0.4629497004664921 1419:0.5233134969153731 1807:0.6663307497486572 2195:0.5286576917003495 2565:0.4629497004664921 2578:0.5181967848600278 2893:0.6848634515266945 3109:0.4629497004664921 3394:0.4373945889469878 3397:0.8169436599201242 3912:0.8169436599201242 
32.0 156:0.8423476176332817 1182:1.4004748455773557 1245:1.3169087740457621 1353:1.4004748455773557 1774:1.4004748455773557 2426:1.2116279748791612 2994:1.4004748455773557 
32.0 189:0.4511475886450209 645:0.4877077449400932 879:0.46758723900963306 1278:0.6127077449400932 1505:0.5761475886450209 2168:0.6127077449400932 2257:0.419741317361947 2592:0.47708743234994866 2750:0.5761475886450209 2775:0.5761475886450209 2986:0.49974806231149294 3051:0.5761475886450209 3512:0.5502077449400932 3963:0.46758723900963306 4065:0.6127077449400932 4237:0.5136475886450209 
2.9270920768627766 2966:8.218361418320335 
32.0 1030:1.9083497293997946 1071:2.3045903545800837 2081:1.8703489560385322 2319:2.2008309797603727 
32.0 27:1.843672283664067 2592:1.5266797835198358 2764:1.1348081804193049 3582:1.243672283664067 3980:1.9606647838082982 
32.0 405:0.848139582415413 991:0.8803323919041491 1438:0.46947994622633216 1793:0.8218361418320335 1946:0.5896433323432972 1953:0.5555396405597905 2213:0.848139582415413 2645:0.9803323919041491 3457:0.5758929799683038 3798:0.7481395824154129 
32.0 
32.0 144:0.20869836494809407 152:0.3139880981492239 438:0.33166994587995896 874:0.41091807091601673 1012:0.2671946150202097 1219:0.41091807091601673 1292:0.44016619595207457 1475:0.41091807091601673 1851:0.49016619595207456 1961:0.4609180709160168 2020:0.23166994587995893 2055:0.23370204510482623 2109:0.20242182084390115 2198:0.35514421004501995 3077:0.2249771585432194 3236:0.4609180709160168 3442:0.3497984498491944 3891:0.2436293290739302 4077:0.3901661959520746 4137:0.49016619595207456 
32.0 645:0.7093930835492265 769:0.554807654627309 1096:0.6359971815439898 1247:0.8912112653674082 1359:0.8912112653674082 1794:1.063477747028112 2146:0.8912112653674082 2420:0.6562146743927577 3364:0.8912112653674082 3466:0.4057703560142606 
32.0 276:1.0892582132268323 965:0.9131512687022594 1475:0.9131512687022594 2764:0.630448989121836 3115:1.0242623798133705 3765:1.0892582132268323 4235:0.7283773783997671 4237:1.8263025374045188 
32.0 401:1.11476055986307 1138:1.4004748455773557 1186:1.4004748455773557 1232:0.9719034170059272 1922:1.3169087740457621 2589:1.3169087740457621 3062:1.3169087740457621 
32.0 79:1.2239820500673657 1076:1.5363935697200557 2293:1.3005539865069151 2448:2.6011079730138302 3716:1.6338873198402484 
9.466948310684332 1921:3.448216661716486 2023:4.901661959520745 
32.0 48:0.7681967848600278 1070:0.4694499097999315 1443:0.7681967848600278 1818:0.7681967848600278 1830:0.8169436599201242 1946:0.4913694436194143 2916:0.8169436599201242 3315:0.4453243583670161 3340:0.6015301181933612 3390:0.5919070167416999 3627:0.7681967848600278 4138:0.5829974164153239 
32.0 144:0.41739672989618815 1343:0.5555396405597905 1419:0.6279761962984478 2115:0.848139582415413 2195:0.6343892300404195 2565:0.5555396405597905 2578:0.6218361418320335 3076:0.6803323919041491 3109:1.111079281119581 
32.0 144:0.41739672989618815 319:0.5715861077791152 941:0.7803323919041492 1794:0.5849127608654616 1961:0.9218361418320336 1996:0.45553964055979057 2020:0.46333989175991785 2312:0.5517921700179242 3163:0.6279761962984478 3536:0.6896433323432972 
32.0 732:2.4508309797603727 2011:2.2008309797603727 2686:2.3045903545800837 3777:2.4508309797603727 
32.0 228:0.2731415168999127 317:0.2873513884763738 438:0.27639162156663244 591:0.3840983924300139 628:0.3251384966267288 928:0.24983204154099528 1033:0.35339149267308867 1437:0.26432884585017474 1758:0.23472495489996575 1819:0.5527832431332649 2113:0.35339149267308867 2251:0.4084718299600621 2266:0.26712527067761377 2392:0.3840983924300139 2839:0.3840983924300139 2987:0.3840983924300139 3088:0.4084718299600621 3334:0.3331653748743286 3693:0.4084718299600621 4099:0.3840983924300139 4129:0.3840983924300139 4193:0.3668051632933954 4258:0.4084718299600621 
32.0 699:0.7123340551403033 970:1.0242623798133705 1031:0.7662703692703302 2317:0.8670359910046102 2369:0.7283773783997671 2375:1.0892582132268323 2986:0.8884409996648763 2991:1.0892582132268323 3160:1.0892582132268323 
32.0 216:2.1203489560385322 249:2.3045903545800837 2626:2.4508309797603727 3218:2.1203489560385322 
32.0 469:1.0242623798133705 1165:1.0242623798133705 1195:1.2896275375647757 2610:0.6259332130665753 2868:1.0892582132268323 2927:1.0892582132268323 3038:0.7283773783997671 4237:0.9131512687022594 
32.0 755:2.3045903545800837 3297:2.3045903545800837 3549:1.950830979760373 3963:1.8703489560385322 
32.0 60:0.2990362839516418 319:0.2721838608471977 542:0.11279503292403648 568:0.3634951865523418 783:0.3913505437295397 948:0.2831115678054247 1343:0.5290853719617052 1419:0.2990362839516418 1471:0.46682494852578527 1693:0.46682494852578527 2067:0.3239678056686424 2195:0.3020901095430569 2565:0.2645426859808526 2578:0.5922248969828889 2637:0.2645426859808526 3109:0.2645426859808526 3270:0.3052860236315586 3466:0.21254637695985076 4174:0.3497091571621045 
32.0 1751:2.406120472773445 2549:2.4937986080513763 3873:3.2677746396804968 
32.0 21:1.4425301626916975 687:3.2677746396804968 848:3.0727871394401114 
1.4548208660446282 3549:3.901661959520746 3963:3.7406979120770645 
32.0 857:4.901661959520745 4051:4.2406979120770645 
32.0 60:0.6279761962984478 549:0.6411006496262731 554:0.3256429459153854 951:0.9218361418320336 1316:0.5715861077791152 1713:0.8218361418320335 2034:0.9803323919041491 2304:0.5311470822711816 2493:0.7633398917599179 4097:0.7803323919041492 
32.0 1525:2.4508309797603727 2670:2.4508309797603727 3155:2.3045903545800837 3823:2.3045903545800837 
1.8655951401655901 895:4.901661959520745 3670:3.2055032481313654 
32.0 
32.0 224:2.1203489560385322 317:1.724108330858243 2008:2.3045903545800837 2266:1.6027516240656827 
32.0 1915:1.5606647838082983 2135:1.1517859599366076 3486:1.5266797835198358 3887:1.9606647838082982 4195:1.7606647838082983 
32.0 682:0.5870258155943096 752:0.5711406426417062 889:0.6584543870228811 909:0.6584543870228811 1332:0.7002374227886778 2343:0.4738142083999413 2369:0.46824260039985033 2627:0.5245637357431567 2792:0.49971207121313477 3270:0.4579290354473379 3312:0.5245637357431567 3457:0.41135212854878833 4138:0.49971207121313477 4230:0.7002374227886778 
32.0 467:0.3287344567328134 490:0.39213295676165966 620:0.39213295676165966 656:0.2937556920161678 721:0.3198387598793555 828:0.3687344567328134 937:0.3521329567616596 986:0.3687344567328134 1012:0.21375569201616773 1088:0.5875113840323356 1179:0.39213295676165966 1190:0.39213295676165966 1208:0.3687344567328134 1209:0.2887344567328134 1325:0.39213295676165966 1438:0.18779197849053286 1996:0.18221585622391623 2101:0.3198387598793555 2192:0.3121329567616597 2569:0.3687344567328134 3453:0.39213295676165966 3798:0.29925583296616515 3868:0.2622158562239162 4200:0.3392558329661652 
32.0 418:1.3326614994973145 1786:1.6338873198402484 2147:1.369726903053389 2551:1.1494055539054953 2672:1.369726903053389 3754:1.1838140334833998 
32.0 1998:1.3266797835198358 2058:1.311079281119581 2257:1.3431722155582304 2764:1.1348081804193049 3982:1.9606647838082982 
32.0 542:0.26318841015608513 1343:0.6172662672886561 1419:0.6977513292204974 2195:0.7048769222671326 2565:0.6172662672886561 2578:0.6909290464800372 2637:0.6172662672886561 3109:0.6172662672886561 4059:0.7370443241776865 
32.0 779:0.6663307497486572 1336:0.8169436599201242 1438:0.39123328852194345 1761:0.6848634515266945 2257:0.5596550898159293 2499:0.8169436599201242 2811:0.8169436599201242 3220:0.6361165764665981 3385:0.7336103265867908 3394:0.4373945889469878 3868:0.5462830337998253 3952:0.6234496520128441 
32.0 1661:2.2677746396804968 3315:1.7812974334680645 4096:3.2677746396804968 
32.0 243:1.9606647838082982 1648:1.9606647838082982 2624:1.9606647838082982 2748:1.5606647838082983 3126:1.7606647838082983 
32.0 279:0.46333283784428897 699:0.3374213945401437 723:0.4851769167537018 928:0.3155773156307309 1031:0.3629701749175248 1219:0.43254533780633336 1475:0.43254533780633336 1702:0.4851769167537018 1796:0.4851769167537018 1953:0.2923892845051529 2001:0.4463892539028489 2198:0.3738360105737052 2615:0.46333283784428897 3077:0.23681806162444144 3334:0.4208404735254677 3446:0.5159644167916574 3742:0.4851769167537018 3891:0.25645192534097916 4174:0.38652064738969444 
32.0 
32.0 127:0.5871845321230138 861:0.7541018399262686 881:0.7541018399262686 940:0.7541018399262686 1070:0.4333383782768599 1694:0.7541018399262686 1996:0.3504151081229158 2276:0.7541018399262686 2738:0.5871845321230138 3118:0.7541018399262686 3373:0.46945263083849226 3988:0.7091047244861797 4002:0.6771787630031916 
32.0 839:2.406120472773445 3040:2.2111329725330595 4132:3.2677746396804968 
24.428386872595503 1516:2.9979844984919435 3501:3.5514421004501995 
32.0 309:0.7710359840140117 497:0.8912112653674082 865:0.8380328562109395 1968:0.8912112653674082 2066:0.8912112653674082 2293:0.7093930835492265 2549:0.6801268931049208 2648:0.8912112653674082 3121:0.5404857203558108 3238:0.8380328562109395 3582:0.5653055834836668 
32.0 256:1.2468993040256882 1568:1.5363935697200557 1816:1.6338873198402484 2373:1.6338873198402484 3365:1.6338873198402484 3379:1.6338873198402484 
32.0 124:0.4082757912707965 517:0.7002374227886778 1151:0.7002374227886778 1195:0.41452313707439215 2400:0.5343854160110092 3222:0.7002374227886778 3345:0.7002374227886778 3441:0.42117380881664085 3478:0.7002374227886778 3690:0.6288088513601064 3701:0.6584543870228811 3725:0.557380279931535 3878:0.5870258155943096 4091:0.7002374227886778 
32.0 335:0.44008210730318403 428:0.5766661128847935 588:0.5766661128847935 645:0.4590190540612642 804:0.49890563671494875 808:0.5766661128847935 845:0.4834330246070785 1030:0.44902346574112817 1041:0.49890563671494875 1455:0.5422565540188432 2135:0.33876057645194335 2610:0.33137640691759873 2636:0.5422565540188432 3417:0.36939776252849865 3449:0.24813890696001964 3819:0.5422565540188432 4087:0.5422565540188432 
32.0 160:0.4084718299600621 161:0.3668051632933954 611:0.41005673913997076 720:0.3007650590966806 1289:0.3840983924300139 1316:0.47632175648259595 1343:0.23147485023324604 1438:0.19561664426097172 1936:0.2590983924300139 2109:0.33736970140650185 2220:0.27982754490796463 2358:0.29595350837084994 2518:0.34243172576334724 2846:0.4084718299600621 2909:0.3668051632933954 2969:0.35339149267308867 3039:0.3331653748743286 3394:0.2186972944734939 4003:0.34243172576334724 4143:0.27982754490796463 4198:0.3331653748743286 
32.0 673:2.6011079730138302 774:3.2677746396804968 3179:3.2677746396804968 
32.0 1059:3.2677746396804968 2652:2.665322998994629 3805:3.0727871394401114 
32.0 21:0.7212650813458488 549:1.068501082710455 934:1.5363935697200557 2094:1.2468993040256882 2622:1.6338873198402484 3014:1.6338873198402484 
5.119454038345667 771:1.2468993040256882 1068:1.1838140334833998 1953:0.9258994009329842 2135:0.9598216332805062 3449:0.7030602363867222 3459:1.3326614994973145 
21.244859320973333 2309:3.4979844984919435 3677:4.609180709160167 
0.8974973892752852 2941:9.218361418320335 
32.0 1670:4.901661959520745 3054:4.901661959520745 
32.0 436:0.5870258155943096 542:0.1691925493860547 549:0.4579290354473379 796:0.7002374227886778 845:0.5870258155943096 928:0.4282834997845633 1143:0.7002374227886778 2650:0.7002374227886778 2969:0.6058139874395806 3016:0.7002374227886778 3315:0.3817065928860138 3891:0.3480418986770431 3911:0.6584543870228811 4193:0.6288088513601064 
32.0 60:0.5708874511804071 937:0.8003021744583173 1905:0.7269062724530807 2135:0.5235390726984579 2539:0.6457167455363999 2604:0.8380328562109395 2610:0.512127174327198 2988:0.8380328562109395 3775:0.6676265727640177 3900:0.8003021744583173 4235:0.5959451277816277 
32.0 162:1.0845131080376864 1199:0.5422565540188432 1946:0.34684901902546894 2004:0.5422565540188432 2011:0.5178425834730288 2364:0.9978112734298975 2610:0.33137640691759873 2646:1.153332225769587 2880:0.5766661128847935 3167:0.5766661128847935 3380:0.3034981017215745 3450:0.49890563671494875 3768:0.5178425834730288 4157:0.5422565540188432 
32.0 382:1.4962791648308258 654:1.7606647838082983 2156:1.696279164830826 2317:1.5606647838082983 3582:1.243672283664067 
32.0 1637:4.901661959520745 3134:4.901661959520745 
14.118386034135035 1417:3.0727871394401114 3449:1.4061204727734444 4072:3.2677746396804968 
32.0 124:0.714482634723894 1364:1.2254154898801863 1402:0.9179865375505243 2142:1.2008309797603727 2461:1.2254154898801863 2887:1.2254154898801863 4024:1.2254154898801863 
32.0 65:1.696279164830826 1775:1.843672283664067 2109:0.8096872833756046 3441:1.1792866646865945 4042:1.3991937993967776 
32.0 211:0.3770509199631343 482:0.3001278430400574 611:0.18925695652614036 905:0.3770509199631343 1935:0.3770509199631343 1996:0.1752075540614579 2293:0.3001278430400574 2304:0.20428733933506985 2345:0.26907573065322643 2515:0.3385893815015958 2665:0.31609082378155134 2771:0.6771787630031916 2850:0.3770509199631343 2918:0.3385893815015958 2979:0.35455236224308984 3150:0.3770509199631343 3488:0.31609082378155134 3582:0.23916774685847442 3664:0.7091047244861797 3696:0.35455236224308984 3779:0.35455236224308984 3814:0.32620753169823574 4019:0.32620753169823574 4061:0.3770509199631343 
32.0 279:1.4672206531735816 486:1.6338873198402484 542:0.39478261523412767 1870:1.3005539865069151 2866:1.1659948328306478 3971:1.6338873198402484 
32.0 679:1.9606647838082982 1233:1.7606647838082983 1535:1.9606647838082982 2551:1.3792866646865944 2748:1.5606647838082983 
32.0 510:3.0727871394401114 1431:3.2677746396804968 2233:2.6011079730138302 
32.0 1069:1.1004154898801863 1140:1.2254154898801863 1807:0.9994961246229859 3449:0.5272951772900417 3533:1.1522951772900418 3885:1.1522951772900418 4053:1.1004154898801863 4247:1.2254154898801863 
14.395020432265406 477:9.80332391904149 
14.39646831312685 1941:9.80332391904149 
7.152301198999585 3177:1.9196432665610124 3244:2.665322998994629 4150:3.2677746396804968 
32.0 2147:1.643672283664067 2672:1.643672283664067 2866:1.3991937993967776 3417:1.2559523925968956 3647:1.7606647838082983 
32.0 537:2.1203489560385322 1209:1.8045903545800837 2521:2.4508309797603727 3380:1.2898669323166916 
32.0 29:0.41920590090673765 87:0.46682494852578527 345:0.3331413808087565 542:0.11279503292403648 1374:0.4389695913485873 1547:0.8779391826971746 1794:0.2785298861264103 2369:0.3121617335999002 2651:0.41920590090673765 2741:0.3198029084662453 2783:0.41920590090673765 2840:0.4389695913485873 3074:0.46682494852578527 3466:0.21254637695985076 3506:0.46682494852578527 3687:0.41920590090673765 3932:0.2990362839516418 4029:0.41920590090673765 4076:0.4389695913485873 4097:0.37158685328769003 
32.0 542:0.26318841015608513 801:0.831266202683792 1038:0.7662703692703302 1737:0.8884409996648763 2592:0.8481554352887976 3177:0.6398810888536708 3449:0.9374136485156297 4046:1.0892582132268323 
32.0 2539:2.3676280669667995 3002:3.2677746396804968 3582:2.0727871394401114 
32.0 1127:0.46333283784428897 1209:0.37991375885896495 1210:0.4851769167537018 1443:0.4851769167537018 1469:0.4851769167537018 1556:0.4851769167537018 1667:1.0319288335833148 1849:0.5159644167916574 1946:0.3103385959701564 2142:0.2528065220548153 2598:0.46333283784428897 2882:0.5159644167916574 3006:0.5159644167916574 3229:0.4851769167537018 3247:0.5159644167916574 3924:1.0319288335833148 4117:0.4851769167537018 
14.38899518679696 1575:9.80332391904149 
32.0 1088:1.8359730751010486 1718:1.950830979760373 2109:1.0121091042195056 3163:1.5699404907461194 
32.0 979:1.0892582132268323 1310:1.0892582132268323 1534:1.0892582132268323 1945:0.8884409996648763 2304:0.5901634247457573 2371:1.0242623798133705 3315:0.5937658111560215 3394:0.5831927852626504 4173:0.8481554352887976 
32.0 478:1.257617702720213 1036:1.4004748455773557 1817:1.4004748455773557 1874:1.4004748455773557 1973:1.4004748455773557 2899:1.4004748455773557 3670:0.9158580708946757 
20.405719156302673 538:1.2318935458533533 3670:2.5644025985050924 3802:1.7606647838082983 3890:1.696279164830826 
32.0 804:0.9423773137949032 1928:1.0242623798133705 1974:0.8884409996648763 2427:1.0892582132268323 3449:0.46870682425781485 3517:0.9781471021157211 3557:0.8670359910046102 3704:1.0242623798133705 4172:1.0892582132268323 
32.0 21:0.7212650813458488 1664:1.6338873198402484 2345:1.1659948328306478 2619:1.5363935697200557 4066:1.6338873198402484 4152:1.1055664862665298 
32.0 1695:4.901661959520745 1946:2.948216661716486 
32.0 716:1.5606647838082983 1559:1.843672283664067 1972:1.9606647838082982 2085:1.9606647838082982 3121:1.1890685847827838 
32.0 159:0.7002374227886778 230:0.557380279931535 356:0.7002374227886778 464:0.5452427798285128 690:0.7002374227886778 801:0.5343854160110092 872:0.557380279931535 1136:0.7002374227886778 1214:0.5870258155943096 1888:0.6584543870228811 2280:0.7002374227886778 2304:0.37939077305084395 2918:0.6288088513601064 3904:0.7002374227886778 
32.0 13:0.3840983924300139 21:0.1803162703364622 144:0.17391530412341172 152:0.26165674845768655 436:0.34243172576334724 509:0.3840983924300139 652:0.35339149267308867 772:0.34243172576334724 839:0.3007650590966806 1316:0.23816087824129797 1470:0.4084718299600621 1497:0.3840983924300139 1633:0.4084718299600621 1965:0.35339149267308867 2020:0.1930582882332991 2469:0.34243172576334724 2980:0.3007650590966806 3216:0.3251384966267288 3312:0.30599551251684143 3430:0.34243172576334724 3536:0.2873513884763738 3932:0.5233134969153731 4059:0.27639162156663244 
32.0 144:0.32107440761245243 156:0.45357179411022863 761:0.6524150633964715 1794:0.44993289297343203 1936:0.47833549371694883 1975:0.7541018399262686 1977:0.7541018399262686 2020:0.35641530135378297 2481:0.5649147923387842 2538:0.7541018399262686 3239:0.47833549371694883 3422:0.7541018399262686 4060:0.5871845321230138 
14.394307237384451 2177:9.80332391904149 
32.0 405:4.2406979120770645 699:3.2055032481313654 
32.0 225:1.4004748455773557 1271:1.3169087740457621 2007:1.2116279748791612 2474:1.4004748455773557 2866:0.9994241424262695 2997:1.3169087740457621 4075:1.4004748455773557 
32.0 45:1.2254154898801863 1516:0.7494961246229859 2058:0.8194245506997381 2147:1.0272951772900418 2672:1.0272951772900418 2982:1.0601744780192661 3540:1.1522951772900418 3935:1.1004154898801863 
32.0 1946:1.474108330858243 3142:2.4508309797603727 3357:2.4508309797603727 3410:2.4508309797603727 
32.0 1815:2.4479641001347314 3038:2.1851321351993014 3441:1.9654777744776573 
32.0 21:4.327590488075093 
32.0 617:1.0242623798133705 1736:1.0892582132268323 2135:0.6398810888536708 2140:0.7892093556555998 2142:0.5337026576712767 2317:0.8670359910046102 2764:0.630448989121836 2968:1.0892582132268323 4161:1.0892582132268323 
32.0 247:1.5363935697200557 1606:1.6338873198402484 2058:1.0925660675996507 2477:1.4135659706923547 2837:1.6338873198402484 2992:1.6338873198402484 
32.0 275:3.2677746396804968 624:2.5444663058663926 2939:3.2677746396804968 
32.0 806:1.1522951772900418 1145:1.1004154898801863 1674:1.0272951772900418 1737:0.9994961246229859 2142:0.6004154898801863 2503:1.1004154898801863 2556:1.1522951772900418 4040:1.0601744780192661 
8.865289318372891 1665:4.901661959520745 2058:3.2776982027989523 
32.0 1678:1.4672206531735816 2425:1.1193101796318585 3220:1.2722331529331963 3486:1.2722331529331963 3559:0.9993281661639811 4167:1.1838140334833998 
32.0 124:0.5196237343446501 264:0.8912112653674082 312:0.8912112653674082 892:0.8380328562109395 1240:0.6801268931049208 2142:0.4366658108219537 2691:0.8003021744583173 3013:0.8912112653674082 3517:0.8003021744583173 3938:0.7471237653018487 4141:0.8912112653674082 
32.0 262:1.678965269447788 496:2.4508309797603727 3121:1.4863357309784797 3253:1.950830979760373 
32.0 576:1.5363935697200557 592:1.0363935697200557 2479:1.2030602363867224 3295:1.5363935697200557 3380:0.8599112882111277 3668:1.5363935697200557 
32.0 79:0.5649147923387842 416:0.7541018399262686 583:0.7541018399262686 827:0.6771787630031916 943:0.7541018399262686 1017:0.7091047244861797 1249:0.6771787630031916 2652:0.6150745382295298 2978:2.262305519778806 3601:0.7541018399262686 4073:0.7091047244861797 
32.0 44:1.0892582132268323 124:1.2701913506202558 414:1.0892582132268323 1232:0.7559248798934989 2142:0.5337026576712767 3121:0.6605936582126576 3380:0.5732741921407518 4256:1.0892582132268323 
0.34433875396276004 2238:2.4508309797603727 3177:1.4397324499207593 3449:1.0545903545800834 3761:2.4508309797603727 
32.0 135:0.6584543870228811 155:0.7002374227886778 357:0.7002374227886778 1996:0.32538545754270753 2126:0.424667351708137 2325:0.7002374227886778 2369:0.46824260039985033 2477:0.6058139874395806 2641:0.6288088513601064 2822:0.7002374227886778 3270:0.4579290354473379 3339:0.7002374227886778 3449:0.3013115298800238 3457:0.41135212854878833 
32.0 1313:2.9344413063471633 1392:3.0727871394401114 1571:1.9654777744776573 
20.126048475640363 262:2.238620359263717 2142:1.6011079730138302 2448:2.6011079730138302 
32.0 1313:2.2008309797603727 1383:2.3045903545800837 3362:2.4508309797603727 3669:2.4508309797603727 
23.92997052811658 2233:7.803323919041492 
32.0 2058:2.1851321351993014 2905:3.0727871394401114 3628:3.2677746396804968 
32.0 189:0.9022951772900418 771:0.9351744780192661 1068:0.8878605251125499 1447:1.2254154898801863 1960:1.2254154898801863 3072:1.1004154898801863 3177:0.7198662249603797 4033:1.1004154898801863 
32.0 55:0.5300872390096331 367:0.6127077449400932 518:0.6127077449400932 720:0.4511475886450209 1712:0.5761475886450209 1750:0.5761475886450209 1953:0.3472122753498691 2123:0.6127077449400932 2198:0.44393026255627493 2447:0.45899326877526214 2742:0.4511475886450209 2746:0.6127077449400932 3139:0.49974806231149294 3154:0.5502077449400932 3373:0.38143026255627493 3471:0.4877077449400932 
32.0 124:1.1431722155582305 2466:3.9213295676165965 2706:1.9606647838082982 3690:1.7606647838082983 
32.0 81:0.36308607107561075 147:0.36308607107561075 492:0.36308607107561075 734:0.36308607107561075 1048:0.608767512468173 1402:0.27199601112608124 1430:0.36308607107561075 2267:0.3414207932711235 2400:0.2770887342279307 2900:0.36308607107561075 2921:0.3141257712649677 2938:0.3141257712649677 2964:0.3260490340385737 3144:0.36308607107561075 3328:0.3260490340385737 3380:0.1910913973802506 3394:0.19439759508755014 3427:0.2961469998882921 3557:0.28901199700153674 3741:0.36308607107561075 3767:0.36308607107561075 3848:0.36308607107561075 3932:0.465167552813665 4088:0.3043837562340865 4261:0.3043837562340865 
32.0 7:2.3045903545800837 230:1.950830979760373 673:1.950830979760373 3441:1.474108330858243 
21.431377919583657 1951:4.609180709160167 2140:3.5514421004501995 
32.0 118:0.4609180709160168 152:0.3139880981492239 349:0.49016619595207456 692:0.49016619595207456 777:0.44016619595207457 1129:0.49016619595207456 1164:0.49016619595207456 1747:0.4240697912077065 2298:0.49016619595207456 2304:0.2655735411355908 2345:0.3497984498491944 3063:0.2857930538895576 3332:0.41091807091601673 3373:0.30514421004501996 3457:0.2879464899841519 3710:0.49016619595207456 3744:0.4609180709160168 3840:0.49016619595207456 3987:0.49016619595207456 4092:0.4240697912077065 
32.0 144:0.2981405213544201 554:0.23260210422527527 615:0.5711406426417062 720:0.5155972441657382 1438:0.3353428187330944 1561:0.7002374227886778 1705:0.4859517085029636 2020:0.33095706554279847 2067:0.4859517085029636 2264:0.4859517085029636 3393:0.4531351643145853 3529:0.40238563697136986 3656:0.5343854160110092 3936:0.4738142083999413 
32.0 2683:3.2677746396804968 3857:3.2677746396804968 4039:3.2677746396804968 
32.0 398:2.4508309797603727 3958:4.609180709160167 4016:2.4508309797603727 
32.0 2505:3.2677746396804968 3234:3.2677746396804968 3244:2.665322998994629 
32.0 266:2.4508309797603727 673:1.950830979760373 1590:2.1203489560385322 1704:2.4508309797603727 
32.0 738:0.5871845321230138 1074:0.7091047244861797 1167:0.7541018399262686 1329:0.7091047244861797 1660:0.6771787630031916 1996:0.3504151081229158 2044:0.7541018399262686 3124:0.7541018399262686 3290:0.6321816475631027 3387:0.7541018399262686 3449:0.6489786797415898 3596:0.5871845321230138 
32.0 386:1.9606647838082982 1464:1.696279164830826 2243:1.9606647838082982 2489:1.3606647838082981 2719:1.843672283664067 
14.391929440099785 1730:9.80332391904149 
32.0 771:1.2468993040256882 1068:1.1838140334833998 2425:1.1193101796318585 3380:0.8599112882111277 3499:1.5363935697200557 4054:1.5363935697200557 
32.0 544:3.2677746396804968 1516:1.9986563323279622 3394:1.7495783557879512 
32.0 322:2.2008309797603727 2938:2.1203489560385322 3566:2.0545903545800837 3953:2.4508309797603727 
32.0 755:3.0727871394401114 3297:3.0727871394401114 3672:3.2677746396804968 
32.0 124:1.428965269447788 419:2.4508309797603727 2371:2.3045903545800837 3308:1.9989922492459717 
32.0 581:1.6338873198402484 1474:1.6338873198402484 1778:1.6338873198402484 2139:1.5363935697200557 2674:1.4135659706923547 3806:1.6338873198402484 
32.0 21:0.18815610817717796 124:0.7455470971031937 621:0.3573200616661015 876:0.42623147474093437 1077:0.4007983225356667 1125:0.42623147474093437 1232:0.2957966921322387 1590:0.3687563401806143 1682:0.3827532138713691 1725:0.3827532138713691 1761:0.3573200616661015 1996:0.19806071328686545 2047:0.42623147474093437 2142:0.2088401703931083 3062:0.4007983225356667 3331:0.42623147474093437 3638:0.42623147474093437 3809:0.3573200616661015 3868:0.28501723502599585 4180:0.3827532138713691 4233:0.42623147474093437 
32.0 321:0.9803323919041491 390:0.8218361418320335 850:0.9803323919041491 1781:0.9803323919041491 1870:0.7803323919041492 1921:0.6896433323432972 2058:0.6555396405597905 2257:0.6715861077791152 2402:0.9803323919041491 2551:0.6896433323432972 
32.0 585:4.609180709160167 3608:4.609180709160167 
14.396418826780167 3407:9.80332391904149 
32.0 242:1.7606647838082983 550:1.843672283664067 1091:1.9606647838082982 1540:1.9606647838082982 1998:1.3266797835198358 
32.0 1209:0.9022951772900418 1233:1.1004154898801863 1355:1.0272951772900418 1494:1.0601744780192661 2142:0.6004154898801863 3178:0.627745525689604 3334:0.9994961246229859 4151:1.2254154898801863 
32.0 139:0.6127077449400932 164:0.49974806231149294 779:0.49974806231149294 1953:0.6944245506997382 2140:0.8878605251125499 2304:0.3319669264194885 3235:0.6127077449400932 3414:0.6127077449400932 3449:0.26364758864502086 3780:0.6127077449400932 3932:0.39248512268652985 4092:0.5300872390096331 4167:0.8878605251125499 
32.0 862:1.0925660675996507 1983:1.6338873198402484 2235:1.6338873198402484 3449:0.7030602363867222 3457:0.9598216332805062 4082:1.5363935697200557 
32.0 461:2.3045903545800837 2142:1.2008309797603727 3475:2.4508309797603727 3810:2.3045903545800837 
32.0 1746:1.9606647838082982 2107:1.9606647838082982 2304:1.0622941645423631 2539:1.4205768401800798 3666:1.9606647838082982 
32.0 234:0.3671946150202097 382:0.37406979120770645 554:0.1628214729576927 1075:0.2705503248131365 1198:0.37406979120770645 1218:0.3997984498491944 1226:0.37406979120770645 1355:0.41091807091601673 1438:0.23473997311316608 1822:0.49016619595207456 1896:0.38166994587995895 1991:0.37406979120770645 2264:0.34016619595207453 2428:0.4240697912077065 3229:0.4609180709160168 3239:0.31091807091601675 3271:0.38166994587995895 3373:0.30514421004501996 3519:0.44016619595207457 3957:0.41091807091601673 
32.0 74:1.9606647838082982 954:1.696279164830826 998:1.7606647838082983 2426:1.696279164830826 2940:1.9606647838082982 
32.0 412:1.4004748455773557 1097:1.4004748455773557 1156:1.4004748455773557 1206:1.4004748455773557 2433:1.4004748455773557 2764:0.8105772717280748 3374:1.4004748455773557 
32.0 2318:2.4937986080513763 3210:2.739453806106778 3685:3.2677746396804968 
32.0 561:1.3005539865069151 2096:1.369726903053389 2147:1.369726903053389 2672:1.369726903053389 3449:0.7030602363867222 3926:1.6338873198402484 
32.0 1141:2.3045903545800837 1221:2.4508309797603727 3581:2.3045903545800837 3634:2.3045903545800837 
32.0 727:1.9606647838082982 1654:1.643672283664067 1678:1.7606647838082983 3899:1.7606647838082983 4113:1.9606647838082982 
32.0 364:1.6338873198402484 365:1.3005539865069151 1406:1.6338873198402484 3145:1.6338873198402484 3670:1.068501082710455 3981:1.6338873198402484 
32.0 52:0.42623147474093437 124:0.24851569903439788 635:0.4007983225356667 740:0.42623147474093437 743:0.42623147474093437 1214:0.3573200616661015 1244:0.42623147474093437 1366:0.3687563401806143 2009:0.3827532138713691 2074:0.3573200616661015 2190:0.4007983225356667 3217:0.3138418007965363 3220:0.3318869094608338 3396:0.42623147474093437 3582:0.27036353992697104 3597:0.42623147474093437 3739:0.4007983225356667 3769:0.42623147474093437 3854:0.42623147474093437 3977:0.42623147474093437 4152:0.28840864859126863 4228:0.42623147474093437 4232:0.42623147474093437 
32.0 32:2.4508309797603727 1713:2.0545903545800837 3011:2.4508309797603727 3583:2.4508309797603727 
32.0 390:0.3573200616661015 482:0.339274953001804 624:0.3318869094608338 954:0.3687563401806143 1232:0.2957966921322387 1266:0.42623147474093437 1399:0.4007983225356667 1417:0.4007983225356667 1638:0.8015966450713334 1661:0.2957966921322387 1782:0.4007983225356667 2051:0.4007983225356667 2080:0.42623147474093437 2164:0.4007983225356667 2378:0.42623147474093437 2464:0.3827532138713691 3373:0.2653427913434956 3417:0.2730331288254121 3449:0.36681403637568116 3501:0.30882105221306083 3725:0.339274953001804 
32.0 21:0.2704744055046933 88:0.5761475886450209 124:0.714482634723894 271:0.6127077449400932 605:0.5761475886450209 880:0.6127077449400932 1072:1.2254154898801863 1195:0.36270774494009317 1745:0.5761475886450209 2142:0.30020774494009317 2658:0.6127077449400932 3273:0.5502077449400932 3463:0.6127077449400932 3789:0.6127077449400932 
32.0 452:2.2677746396804968 1343:1.8517988018659683 2081:2.4937986080513763 
32.0 21:0.7212650813458488 124:0.9526435129651919 163:1.6338873198402484 778:1.6338873198402484 2348:1.6338873198402484 3427:1.3326614994973145 
32.0 265:1.6338873198402484 819:1.6338873198402484 1998:1.1055664862665298 2318:1.2468993040256882 3449:0.7030602363867222 3908:1.6338873198402484 
32.0 656:3.671946150202097 2127:4.2406979120770645 
32.0 405:2.1203489560385322 1330:2.3045903545800837 1502:2.3045903545800837 2318:1.8703489560385322 
14.400509209792641 2844:9.80332391904149 
32.0 124:0.714482634723894 1814:1.2254154898801863 2006:1.2254154898801863 2304:0.663933852838977 2425:0.839482634723894 2881:1.1522951772900418 2996:1.0601744780192661 3486:0.9541748646998973 
8.83278422348001 1908:4.901661959520745 2058:3.2776982027989523 
32.0 2237:1.2254154898801863 2525:1.2254154898801863 2794:1.2254154898801863 2848:1.2254154898801863 3064:1.2254154898801863 3206:1.2254154898801863 3401:0.9994961246229859 3998:1.1522951772900418 
32.0 2279:3.2677746396804968 3520:3.2677746396804968 3933:2.8271319413847094 
32.0 988:4.901661959520745 1654:4.109180709160167 
32.0 191:0.6058139874395806 315:0.7002374227886778 565:0.7002374227886778 913:0.6584543870228811 1365:0.7002374227886778 1442:0.7002374227886778 1609:0.7002374227886778 1728:0.6058139874395806 1905:0.5711406426417062 2170:0.6584543870228811 2250:0.7002374227886778 2312:0.39413726429851725 2331:0.6288088513601064 3891:0.3480418986770431 
32.0 298:3.2677746396804968 605:3.0727871394401114 3218:2.8271319413847094 
32.0 21:1.4425301626916975 640:2.8271319413847094 3377:3.2677746396804968 
32.0 1753:4.901661959520745 3946:4.609180709160167 
32.0 17:0.3687344567328134 314:0.3521329567616596 335:0.29925583296616515 388:0.5372688862232922 493:0.39213295676165966 1177:0.39213295676165966 1872:0.3687344567328134 2021:0.3521329567616596 2174:0.2937556920161678 2223:0.3687344567328134 2385:0.3687344567328134 2420:0.2887344567328134 2425:0.2686344431116461 2879:0.3198387598793555 3373:0.24411536803601597 3762:0.7042659135233192 3833:0.39213295676165966 3843:0.39213295676165966 4195:0.3521329567616596 4260:1.3570233318646607 
32.0 983:2.9344413063471633 3188:3.2677746396804968 3846:3.0727871394401114 
32.0 196:0.3267774639680497 359:0.6535549279360994 410:0.3267774639680497 437:0.3267774639680497 478:0.29344413063471636 592:0.20727871394401115 845:0.2739453806106778 1302:0.30727871394401113 1370:0.3267774639680497 1391:0.3267774639680497 1399:0.30727871394401113 1510:0.3267774639680497 1571:0.19654777744776572 1680:0.3267774639680497 1859:0.30727871394401113 1911:0.3267774639680497 2142:0.16011079730138303 2164:0.30727871394401113 2510:0.28271319413847096 2817:0.3267774639680497 2862:0.28271319413847096 2950:0.30727871394401113 2998:0.3267774639680497 3514:0.3267774639680497 3557:0.26011079730138303 3939:0.3267774639680497 3964:0.30727871394401113 4207:0.46639793313225913 
32.0 2240:3.2677746396804968 2472:3.0727871394401114 3850:3.0727871394401114 
32.0 436:2.0545903545800837 1707:2.4508309797603727 3555:2.4508309797603727 3797:2.1203489560385322 
32.0 238:4.609180709160167 3146:4.609180709160167 
32.0 482:1.11476055986307 2304:0.7587815461016879 2920:1.3169087740457621 3315:0.7634131857720275 3373:0.8718406001286284 3449:0.6026230597600476 3587:1.4004748455773557 
32.0 712:1.2254154898801863 1012:0.6679865375505242 1993:1.1522951772900418 2345:0.8744961246229859 2413:1.2254154898801863 2610:0.7041748646998973 3151:1.2254154898801863 4062:0.9351744780192661 
32.0 70:0.6127077449400932 181:0.5761475886450209 250:0.5761475886450209 897:0.5761475886450209 1043:0.5502077449400932 1256:0.6127077449400932 1515:0.5300872390096331 1647:0.6127077449400932 1914:0.6127077449400932 2208:0.6127077449400932 2244:0.6127077449400932 2259:0.5136475886450209 2460:0.6127077449400932 3177:0.35993311248018983 3519:0.5502077449400932 3793:0.6127077449400932 
32.0 491:2.9344413063471633 2211:3.0727871394401114 3315:1.7812974334680645 
32.0 283:0.6127077449400932 353:0.6127077449400932 549:0.4006879060164207 783:0.5136475886450209 1529:0.45899326877526214 2109:0.2530272760548764 2117:0.5136475886450209 2155:0.6127077449400932 2196:0.6127077449400932 2260:0.5136475886450209 3077:0.2812214481790242 3155:0.5761475886450209 3216:0.4877077449400932 3584:0.6127077449400932 3844:0.5502077449400932 3936:0.41458743234994866 
9.8928538718086 65:8.481395824154129 
29.94001113471558 2305:2.739453806106778 3435:3.2677746396804968 3670:2.13700216542091 
32.0 533:1.843672283664067 538:1.2318935458533533 2227:1.9606647838082982 2362:1.843672283664067 3380:1.0318935458533534 
32.0 527:2.4508309797603727 713:2.4508309797603727 2687:2.0545903545800837 3823:2.3045903545800837 
32.0 213:0.3141257712649677 234:0.27199601112608124 439:0.3414207932711235 574:0.36308607107561075 1032:0.3141257712649677 1075:0.20040764800973074 1551:0.1447594872493906 1702:0.3414207932711235 1758:0.41728880871105023 1763:0.5108469128468868 2230:0.25910996285125504 2450:0.36308607107561075 2481:0.27199601112608124 2482:0.2554234564234434 3077:0.1666497470690514 3181:0.36308607107561075 3216:0.28901199700153674 3334:0.2961469998882921 3408:0.36308607107561075 3416:0.3414207932711235 3742:0.3414207932711235 3796:0.36308607107561075 3868:0.24279245946658903 3891:0.18046616968439272 3936:0.24568144139256215 
32.0 406:0.5502077449400932 782:0.6127077449400932 840:0.6127077449400932 929:0.6127077449400932 1010:0.5761475886450209 1200:0.5502077449400932 1529:0.45899326877526214 1548:0.5502077449400932 1715:0.6127077449400932 2409:0.4877077449400932 2782:1.2254154898801863 3639:1.2254154898801863 3658:0.6127077449400932 3818:0.6127077449400932 
14.394339232056845 3153:9.80332391904149 
18.315320443823452 604:4.609180709160167 3121:2.9726714619569594 
9.306301387640875 37:5.2022159460276605 1127:2.9344413063471633 
32.0 310:2.4508309797603727 624:1.9083497293997946 1301:2.3045903545800837 1764:2.0545903545800837 
32.0 124:0.902504380703866 424:0.5159644167916574 453:0.5159644167916574 1048:0.43254533780633336 1615:0.4851769167537018 2126:0.31291278546915363 2142:0.2528065220548153 2400:0.3937576749554805 2639:0.46333283784428897 2757:0.5159644167916574 3003:0.5159644167916574 3350:0.46333283784428897 3354:0.5159644167916574 3394:0.27624921407178177 3539:0.5159644167916574 3928:0.4851769167537018 4062:0.3937576749554805 
14.396429655713062 4204:9.80332391904149 
32.0 1577:0.6535549279360994 1661:0.9071098558721987 1696:0.6535549279360994 1823:0.6535549279360994 2097:0.6535549279360994 2349:0.6145574278880223 2400:0.49875972161027526 2524:0.6535549279360994 2571:0.6535549279360994 2716:1.3071098558721987 2996:1.1308527765538838 3634:0.6145574278880223 
32.0 104:0.848139582415413 156:0.5896433323432972 875:0.9218361418320336 1184:0.7803323919041492 1571:0.5896433323432972 1881:0.8218361418320335 1913:0.9803323919041491 2471:0.848139582415413 2874:0.9803323919041491 3845:0.6555396405597905 
10.854403683963287 2721:4.401661959520745 3038:3.2776982027989523 
14.403340856841314 41:9.80332391904149 
25.70016056082168 2257:3.357930538895576 3952:3.7406979120770645 
14.393839456493696 1772:9.80332391904149 
14.394251870284373 358:9.80332391904149 
27.87261260479989 508:4.901661959520745 959:4.401661959520745 
32.0 1799:1.9606647838082982 1945:1.5991937993967775 2955:1.9606647838082982 3127:1.696279164830826 3811:1.9606647838082982 
32.0 112:1.7606647838082983 198:1.9606647838082982 657:1.5266797835198358 797:1.7606647838082983 846:1.5991937993967775 
32.0 3670:1.6027516240656827 3802:2.2008309797603727 3890:2.1203489560385322 3983:2.4508309797603727 
32.0 3154:2.2008309797603727 3308:1.9989922492459717 3417:1.5699404907461194 3937:2.4508309797603727 
32.0 2181:1.6338873198402484 2621:1.6338873198402484 2821:1.6338873198402484 3038:1.0925660675996507 3340:1.2030602363867224 3670:1.068501082710455 
32.0 21:0.8655180976150186 124:1.1431722155582305 592:1.243672283664067 1076:1.843672283664067 2588:1.643672283664067 
32.0 144:0.3794515726328983 542:0.10766798597294391 738:0.34697267807268994 752:0.36345313622654035 1096:0.3179985907719949 1316:0.5196237343446501 1343:0.2525180184362684 1419:0.28544372559020353 1996:0.20706347298172298 2020:0.4212180834181071 2119:0.41901642810546974 2195:0.2883587409274634 2565:0.2525180184362684 2578:0.2826527917418334 2637:0.2525180184362684 3109:0.5050360368725368 3457:0.26176953634922895 3466:0.2028851780071303 
32.0 236:0.8744961246229859 530:1.1522951772900418 537:1.0601744780192661 1630:1.2254154898801863 2111:1.2254154898801863 2125:1.2254154898801863 3045:1.1522951772900418 3280:1.2254154898801863 
32.0 228:0.34502086345252125 317:0.3629701749175248 554:0.1713910241659923 706:0.46333283784428897 859:0.3937576749554805 928:0.3155773156307309 964:0.3738360105737052 1551:0.2057108503017656 2198:0.3738360105737052 2230:0.3682088945780993 2264:0.35806967994955213 2266:0.3374213945401437 2481:0.38652064738969444 3063:0.30083479356795534 3139:0.4208404735254677 3178:0.2643139055535174 3381:0.28849451706074364 3471:0.4107012588969206 3732:0.38652064738969444 
14.401673358291156 1212:9.80332391904149 
9.816760313251462 4237:8.218361418320335 
32.0 361:2.4508309797603727 2355:2.4508309797603727 3449:1.0545903545800834 3490:2.3045903545800837 
32.0 2764:1.1348081804193049 3449:0.8436722836640668 3905:1.9606647838082982 4110:1.9606647838082982 4188:1.9606647838082982 
32.0 540:1.1004154898801863 646:1.1522951772900418 798:1.1522951772900418 1054:1.2254154898801863 1200:1.1004154898801863 2142:0.6004154898801863 4189:1.0272951772900418 4249:1.2254154898801863 
32.0 60:0.4186507975322985 311:0.5478907612213556 1088:0.48959282002694626 1135:0.5330645997989258 1142:0.4145574278880223 1468:0.6535549279360994 1724:0.5202215946027661 2103:0.6535549279360994 2135:0.3839286533122025 2581:0.5654263882769419 3000:0.6145574278880223 3063:0.3810574051860768 3092:0.6535549279360994 3476:0.4735256133933599 3559:0.3997312664655925 
32.0 168:3.2677746396804968 1819:2.2111329725330595 4195:2.9344413063471633 
32.0 22:0.4834330246070785 46:0.5178425834730288 257:0.5766661128847935 1475:0.4834330246070785 1495:0.5766661128847935 1546:0.5422565540188432 1618:0.5766661128847935 1878:0.5766661128847935 2550:0.5422565540188432 2693:0.4834330246070785 2783:0.5178425834730288 3239:0.3657859657835491 3891:0.2866227400869767 4060:0.44902346574112817 4114:0.5766661128847935 4167:0.4178167177000235 4235:0.385611553270465 
32.0 624:1.9083497293997946 3157:2.3045903545800837 3522:2.3045903545800837 3812:2.4508309797603727 
32.0 432:4.901661959520745 2961:4.109180709160167 
32.0 65:0.848139582415413 600:0.9803323919041491 966:0.9803323919041491 1178:0.9803323919041491 1386:0.9803323919041491 1397:0.9803323919041491 1522:0.9803323919041491 1653:0.9803323919041491 2299:0.9803323919041491 4221:0.9803323919041491 
32.0 1463:0.7710359840140117 1883:0.8912112653674082 2098:0.8003021744583173 2135:0.5235390726984579 2420:0.6562146743927577 2480:0.8912112653674082 2688:0.8003021744583173 2856:0.8912112653674082 3427:0.7269062724530807 3975:0.8912112653674082 4226:0.8912112653674082 
32.0 1068:1.4205768401800798 1199:1.843672283664067 1946:1.1792866646865945 2135:1.1517859599366076 2425:1.3431722155582304 
32.0 278:0.5446291066134161 307:0.5121311899066853 390:0.4565756343511297 691:0.5121311899066853 1105:0.5446291066134161 1195:0.3224068843911939 1631:0.4565756343511297 1733:0.48907355105786054 2488:0.5446291066134161 2722:0.5446291066134161 2902:0.5121311899066853 3177:0.3199405444268354 3344:0.5446291066134161 3366:0.5446291066134161 3394:0.2915963926313252 3449:0.23435341212890742 4138:0.3886649442768826 4252:0.48907355105786054 
32.0 101:1.2254154898801863 323:1.0601744780192661 1245:1.1522951772900418 1366:1.0601744780192661 2654:1.2254154898801863 3177:0.7198662249603797 3400:1.1522951772900418 4015:1.2254154898801863 
32.0 382:2.4937986080513763 501:3.2677746396804968 3147:2.8271319413847094 
32.0 1038:1.1494055539054953 1660:1.4672206531735816 3177:0.9598216332805062 3197:1.6338873198402484 3244:1.3326614994973145 3959:1.6338873198402484 
32.0 362:2.8271319413847094 807:3.2677746396804968 883:3.0727871394401114 
31.561477844370174 1516:2.9979844984919435 2766:4.901661959520745 
1.180852894622085 1069:2.2008309797603727 1189:1.8045903545800837 2504:2.2008309797603727 3449:1.0545903545800834 
26.635969975304924 3754:3.5514421004501995 4123:4.901661959520745 
32.0 124:0.5196237343446501 790:0.7710359840140117 1402:0.6676265727640177 1847:0.8912112653674082 2142:0.4366658108219537 2212:0.8380328562109395 2707:0.8912112653674082 3038:1.1918902555632553 3454:0.8912112653674082 3667:0.8003021744583173 
32.0 748:1.9606647838082982 790:1.696279164830826 1571:1.1792866646865945 2721:1.7606647838082983 3190:1.468778460080839 
32.0 162:1.1522951772900418 630:1.2254154898801863 684:1.2254154898801863 703:1.2254154898801863 3430:1.0272951772900418 3527:1.1004154898801863 3990:1.2254154898801863 4166:1.2254154898801863 
32.0 347:1.6338873198402484 582:1.6338873198402484 1249:1.4672206531735816 1818:1.5363935697200557 3065:1.3326614994973145 3315:0.8906487167340322 
32.0 50:3.2677746396804968 1047:2.9344413063471633 2200:3.2677746396804968 
32.0 462:0.4609180709160168 467:0.41091807091601673 554:0.1628214729576927 1000:0.49016619595207456 1032:0.4240697912077065 1316:0.2857930538895576 1326:0.49016619595207456 1758:0.2816699458799589 1898:0.49016619595207456 2055:0.23370204510482623 2079:0.49016619595207456 2384:0.38166994587995895 2482:0.3448216661716486 3077:0.4499543170864388 3133:0.49016619595207456 3398:0.49016619595207456 3430:0.41091807091601673 3457:0.2879464899841519 3891:0.2436293290739302 
32.0 628:1.11476055986307 760:1.3169087740457621 878:1.0146977429857713 928:0.8565669995691266 1916:1.174051631188619 2664:1.4004748455773557 2742:1.0311944883314763 
32.0 862:1.0925660675996507 2516:1.369726903053389 3121:0.9908904873189864 3315:0.8906487167340322 3380:0.8599112882111277 4026:1.4672206531735816 
15.375167154968482 2967:4.401661959520745 3177:2.8794648998415187 
32.0 2532:3.0727871394401114 3244:2.665322998994629 3325:3.0727871394401114 
32.0 390:0.9131512687022594 1012:0.5937658111560215 2007:0.9423773137949032 2333:1.0892582132268323 2979:1.0242623798133705 3441:0.655159258159219 3488:0.9131512687022594 3868:0.7283773783997671 4109:1.0892582132268323 
32.0 172:2.4508309797603727 719:1.8703489560385322 3389:2.4508309797603727 3655:2.1203489560385322 
32.0 1946:0.9827388872388286 2236:1.6338873198402484 2324:3.0727871394401114 2345:1.1659948328306478 4121:1.5363935697200557 
32.0 181:0.4851769167537018 473:0.4851769167537018 862:0.34502086345252125 990:0.5159644167916574 1045:0.46333283784428897 1163:0.4851769167537018 1280:0.3937576749554805 1661:0.35806967994955213 1821:0.5159644167916574 1953:0.5847785690103058 2142:0.2528065220548153 2257:0.35346637251532376 2273:0.5159644167916574 2920:0.4851769167537018 2976:0.5159644167916574 4062:1.1812730248664414 
32.0 1401:3.2677746396804968 3655:2.8271319413847094 3785:3.2677746396804968 
32.0 
32.0 254:2.4508309797603727 624:1.9083497293997946 693:2.3045903545800837 3154:2.2008309797603727 
32.0 280:3.0727871394401114 2510:2.8271319413847094 3896:3.0727871394401114 
32.0 1232:1.3606647838082981 1516:1.1991937993967774 3199:1.9606647838082982 3557:1.5606647838082983 3813:1.7606647838082983 
11.581106526906773 4082:9.218361418320335 
32.0 127:1.9083497293997946 1340:2.3045903545800837 2028:2.2008309797603727 3032:2.4508309797603727 
32.0 
32.0 436:0.4834330246070785 554:0.19155467406787374 556:0.5766661128847935 674:0.5766661128847935 1453:0.44008210730318403 1551:0.2299121268078557 1758:0.6627528138351975 2095:0.5422565540188432 2793:0.5766661128847935 2862:0.49890563671494875 2937:0.5178425834730288 3239:0.7315719315670982 3381:0.32243504847965465 4060:0.44902346574112817 4104:0.5766661128847935 
32.0 815:3.2677746396804968 1699:3.2677746396804968 2211:3.0727871394401114 
32.0 550:1.843672283664067 1195:1.1606647838082982 2479:1.443672283664067 3201:1.9606647838082982 4005:1.9606647838082982 
32.0 111:1.5363935697200557 834:1.6338873198402484 1384:1.369726903053389 1444:1.5363935697200557 3177:0.9598216332805062 3400:1.5363935697200557 
32.0 3868:6.555396405597905 
32.0 67:0.3501187113943389 124:0.20413789563539825 482:0.2786901399657675 756:0.3501187113943389 758:0.32922719351144053 794:0.3501187113943389 1195:0.20726156853719607 1236:0.3501187113943389 1938:0.3501187113943389 2142:0.17154728282291037 2245:0.3501187113943389 2263:0.3029069937197903 2351:0.3501187113943389 2623:0.3501187113943389 2849:0.32922719351144053 2879:0.2855703213208531 2935:0.3501187113943389 3165:0.3501187113943389 3173:0.3501187113943389 3370:0.3501187113943389 3391:0.32922719351144053 3480:0.3501187113943389 3544:0.3501187113943389 3566:0.2935129077971548 3782:0.32922719351144053 3847:0.3501187113943389 4176:0.3501187113943389 4253:0.32922719351144053 
32.0 324:1.0601744780192661 662:0.6127077449400932 879:0.46758723900963306 1189:0.4511475886450209 1408:0.5761475886450209 1415:0.4877077449400932 1529:0.45899326877526214 2231:0.6127077449400932 2312:0.3448701062612026 2551:0.43102708271456075 2565:0.3472122753498691 2677:0.5761475886450209 2949:0.5502077449400932 3394:0.3280459417102409 4197:0.6127077449400932 
29.8976397808206 1608:4.609180709160167 1626:4.609180709160167 
14.386594516206747 374:9.80332391904149 
32.0 1111:0.9803323919041491 1529:0.7343892300404194 1797:1.5991937993967775 2318:0.7481395824154129 2446:0.9803323919041491 3283:0.8803323919041491 3915:0.9218361418320336 4063:0.9803323919041491 4261:0.8218361418320335 
32.0 314:1.257617702720213 862:0.9364852007997007 2071:1.257617702720213 2257:0.9594087253987359 2516:1.174051631188619 3573:1.257617702720213 3673:1.4004748455773557 
32.0 112:1.1004154898801863 771:0.9351744780192661 960:1.1004154898801863 1068:1.7757210502250997 1679:1.1522951772900418 1953:0.6944245506997382 2174:0.9179865375505243 
32.0 417:2.4508309797603727 1807:1.9989922492459717 2379:2.4508309797603727 3072:2.2008309797603727 
32.0 2:0.8218361418320335 888:0.9218361418320336 1360:0.8803323919041491 2009:0.8803323919041491 2101:0.7995968996983888 2430:0.9803323919041491 2839:0.9218361418320336 2866:0.6995968996983888 3162:0.9803323919041491 4042:0.6995968996983888 
30.59579509763084 1953:2.7776982027989527 2473:4.901661959520745 
32.0 406:1.7606647838082983 1446:1.843672283664067 1455:1.843672283664067 4182:1.9606647838082982 4205:1.1698255217309232 
14.403340856841265 4146:9.80332391904149 
32.0 329:1.6338873198402484 862:1.0925660675996507 2058:1.0925660675996507 3522:1.5363935697200557 3594:1.6338873198402484 4212:1.6338873198402484 
32.0 79:0.9179865375505243 380:1.2254154898801863 809:1.2254154898801863 1142:0.7772951772900418 1415:0.9754154898801864 1953:0.6944245506997382 2036:1.2254154898801863 3237:1.2254154898801863 
14.392136330441426 3523:9.80332391904149 
32.0 262:0.47970436269936795 1218:0.5711406426417062 1751:0.5155972441657382 2126:0.424667351708137 2400:0.5343854160110092 2792:0.49971207121313477 3373:0.8718406001286284 3426:0.7002374227886778 3441:0.8423476176332817 3519:0.6288088513601064 3725:0.557380279931535 3766:0.7002374227886778 
15.673972219083945 614:4.901661959520745 3121:2.9726714619569594 
32.0 107:2.0545903545800837 1584:2.1203489560385322 1837:2.3045903545800837 2738:1.9083497293997946 
32.0 61:1.0242623798133705 189:0.8020401575911482 1301:1.0242623798133705 2058:0.7283773783997671 2436:1.0892582132268323 2932:1.0892582132268323 3350:0.9781471021157211 3754:0.7892093556555998 3957:0.9131512687022594 
32.0 148:0.7628605251125499 542:0.29608696142559576 2242:1.0272951772900418 2312:0.6897402125224052 2627:0.9179865375505243 3301:1.2254154898801863 3390:0.8878605251125499 3457:0.7198662249603797 
32.0 21:0.30911360629107804 152:0.44855442592746264 1343:0.39681402897127893 1419:0.44855442592746264 1962:0.49260238024521225 2058:0.46824260039985033 2195:0.4531351643145853 2470:0.6288088513601064 2565:0.39681402897127893 2578:0.44416867273716676 2756:0.5870258155943096 3063:0.4082757912707965 3109:0.39681402897127893 3152:0.6584543870228811 
32.0 769:1.017147366816733 1985:1.4135659706923547 1996:0.7592327342663175 2464:1.4672206531735816 2554:1.6338873198402484 3449:0.7030602363867222 
32.0 
32.0 450:0.9803323919041491 936:0.9218361418320336 1013:0.848139582415413 1119:0.9803323919041491 1610:0.9218361418320336 1650:0.9803323919041491 2135:0.5758929799683038 3205:0.9803323919041491 3486:0.7633398917599179 3559:0.5995968996983887 
32.0 256:0.5754919864733946 403:0.7541018399262686 837:0.7541018399262686 1348:0.6150745382295298 1516:0.46122838438337593 1807:0.6150745382295298 2818:0.7541018399262686 3190:0.5649147923387842 3449:0.3244893398707949 3615:0.7541018399262686 3771:0.6321816475631027 3877:0.6771787630031916 3885:0.7091047244861797 
32.0 2336:3.9213295676165965 2568:1.9606647838082982 3158:1.9606647838082982 3394:1.0497470134727709 
32.0 549:0.3374213945401437 647:0.5159644167916574 685:0.5159644167916574 784:0.5159644167916574 1058:0.9703538335074036 1408:0.4851769167537018 1739:0.5159644167916574 2345:0.7364177891561986 2363:0.5159644167916574 2368:0.5159644167916574 2542:0.5159644167916574 2825:0.5159644167916574 2958:1.0319288335833148 2980:0.37991375885896495 3883:0.5159644167916574 4152:0.3491262588210094 
20.121753525293844 2417:9.218361418320335 
32.0 864:1.4962791648308258 1215:1.843672283664067 1773:1.9606647838082982 3207:1.9606647838082982 3441:1.1792866646865945 
32.0 21:0.20607573752738537 61:0.4389695913485873 282:0.46682494852578527 287:0.7827010874590794 343:0.46682494852578527 407:0.41920590090673765 420:0.46682494852578527 511:0.4389695913485873 514:0.46682494852578527 1181:0.46682494852578527 1751:0.3437314961104921 1764:0.3913505437295397 1953:0.2645426859808526 2142:0.22872971043054716 2194:0.46682494852578527 2851:0.46682494852578527 2931:0.46682494852578527 2949:0.41920590090673765 3428:0.4389695913485873 3799:0.46682494852578527 
32.0 31:1.4004748455773557 124:0.816551582541593 1454:1.4004748455773557 1868:1.4004748455773557 2667:1.4004748455773557 3038:0.9364852007997007 3242:1.3169087740457621 
31.945215825062366 2632:4.901661959520745 3647:4.401661959520745 
32.0 2077:3.2677746396804968 2786:3.2677746396804968 3925:3.2677746396804968 
32.0 1020:0.8169436599201242 1280:0.6234496520128441 1343:0.4629497004664921 1419:0.5233134969153731 1785:0.8169436599201242 1794:0.487427300721218 1802:0.8169436599201242 2195:0.5286576917003495 2565:0.4629497004664921 2578:0.5181967848600278 3109:0.4629497004664921 3270:0.5342505413552275 
32.0 124:0.2721838608471977 222:0.41920590090673765 286:0.46682494852578527 441:0.46682494852578527 726:0.46682494852578527 1274:0.46682494852578527 1315:0.46682494852578527 1901:0.4389695913485873 1923:0.46682494852578527 1953:0.2645426859808526 2426:0.4038759916263871 2729:0.3913505437295397 2820:0.46682494852578527 3253:0.37158685328769003 3394:0.24993976511256447 3433:0.46682494852578527 3576:0.41920590090673765 3667:0.41920590090673765 3938:0.3913505437295397 3941:0.46682494852578527 4259:0.46682494852578527 
7.262569411849442 561:2.6011079730138302 3111:3.2677746396804968 3449:1.4061204727734444 
32.0 296:0.4084718299600621 317:0.2873513884763738 538:0.25664448871944856 764:0.3668051632933954 939:0.3668051632933954 1378:0.31172482600642204 1422:0.4084718299600621 2002:0.4084718299600621 2198:0.29595350837084994 2266:0.26712527067761377 2615:0.3668051632933954 2747:0.4084718299600621 2918:0.3668051632933954 3077:0.1874809654526828 3352:0.3840983924300139 3373:0.5085736834083665 3471:0.3251384966267288 3529:0.23472495489996575 3650:0.4084718299600621 3891:0.40604888178988363 3976:0.4084718299600621 4050:0.4084718299600621 
30.27761675248772 222:4.401661959520745 2592:3.8166994587995893 
14.394038375839742 2406:9.80332391904149 
2.7728488696940032 1090:3.2677746396804968 3449:1.4061204727734444 4119:2.9344413063471633 
32.0 157:4.901661959520745 530:4.609180709160167 
32.0 54:0.3318869094608338 107:0.3573200616661015 299:0.4007983225356667 426:0.42623147474093437 611:0.21394264650781084 666:0.42623147474093437 739:0.42623147474093437 781:0.42623147474093437 1027:0.3827532138713691 1135:0.34765082595582114 1142:0.27036353992697104 1515:0.3687563401806143 1976:0.3687563401806143 2304:0.2309335140309485 2315:0.42623147474093437 2585:0.42623147474093437 2738:0.6637738189216676 3063:0.24851569903439788 3200:0.42623147474093437 3324:0.42623147474093437 3394:0.2282058724940806 3940:0.4007983225356667 
30.36017305665889 2364:4.2406979120770645 2954:4.901661959520745 
32.0 30:0.5446291066134161 1035:0.5446291066134161 1196:0.5446291066134161 1283:0.5446291066134161 1328:0.5446291066134161 1585:0.4565756343511297 1871:0.5446291066134161 2030:0.5446291066134161 2126:0.3302968291063288 2142:0.26685132883563834 2188:0.5446291066134161 2324:0.5121311899066853 2669:0.5446291066134161 3121:0.3302968291063288 3284:0.5121311899066853 3521:0.5446291066134161 3671:0.5446291066134161 4085:0.5446291066134161 
32.0 849:0.8912112653674082 911:0.8003021744583173 963:0.8003021744583173 1083:0.8912112653674082 1342:0.8912112653674082 1515:0.7710359840140117 1620:0.8912112653674082 1751:0.6562146743927577 3004:0.8912112653674082 3022:0.8912112653674082 3852:0.8912112653674082 
32.0 317:1.3792866646865944 664:1.9606647838082982 1642:1.9606647838082982 2444:1.7606647838082983 2559:1.696279164830826 
32.0 542:0.47373913828095326 2364:1.696279164830826 2966:1.643672283664067 3449:0.8436722836640668 4200:1.696279164830826 
32.0 431:1.1522951772900418 592:0.7772951772900418 860:1.2254154898801863 1788:1.2254154898801863 2570:1.2254154898801863 2912:1.2254154898801863 3211:1.2254154898801863 3582:0.7772951772900418 
